D1,D2,D3,D4,D5,D6,D7,D8,D9,D10,D11,D12,D13,D14,D15,D16
-1.2424543977263696e-05,5.670207478008603e-19,3.152999875781406e-05,5.3985897500328355e-05,-0.00016429754349279682,-1.0010945449735457e-16,4.119364063976889e-17,-0.4637431526293406,-1.4182510923924317e-07,2.8987057163884608e-18,2.3771413561460276e-07,3.033814589474905e-07,-7.054931462252144e-07,4.552688882147326e-19,5.789498743430185e-19,-0.00043216007410377597
-1.999027328300185e-07,-1.1414409054696406e-17,1.5963492554940744e-07,1.3964484843815313e-07,-2.3866823083440913e-07,7.164343467653606e-20,-1.2083947516771875e-19,-3.027044417900335e-05,-5.634375460722102e-06,7.745335812029618e-19,1.0555421523701587e-05,1.4131634908362126e-05,-3.378704076657311e-05,-6.0265121113020905e-18,6.5141695876184116e-18,-0.02156346389234719
-4.087909902616776e-08,-2.995611502626906e-19,4.525364949966771e-08,4.304894877583871e-08,-7.649233303502174e-08,5.800824751419174e-21,2.1546376442092918e-20,-1.0168882867953273e-05,-7.163302826304866e-06,9.954017821146592e-19,1.2006086320052089e-05,1.5322529350455566e-05,-3.563128809308496e-05,-3.7536789761816636e-18,3.946810199257651e-18,-0.0218262756152856
-3.21539097265924e-08,-6.793644630461672e-19,3.9785766419849014e-08,3.970310732520044e-08,-7.253315029737643e-08,-1.1627772723968797e-19,1.6312759622222744e-19,-1.0046438632666516e-05,-5.634375460722102e-06,1.0525042287983952e-18,1.0555421523701594e-05,1.413163490837526e-05,-3.378704076645489e-05,-3.80766240099177e-18,3.780318940508209e-18,-0.021563463892347295
-3.215390972602681e-08,-2.8589064243844223e-19,3.9785766420266634e-08,3.970310732497165e-08,-7.253315029815047e-08,9.661869784287171e-20,1.5505714208802418e-19,-1.0046438632666123e-05,-5.634375460722102e-06,1.0525042287983887e-18,1.0555421523701594e-05,1.4131634908362127e-05,-3.378704076657884e-05,-3.807232133353877e-18,3.803352023600091e-18,-0.021563463892346924
-3.2153909723638166e-08,1.5299645930186846e-18,3.978576642241007e-08,3.9703107324970655e-08,-7.253315029997021e-08,-1.6889584739421958e-19,1.0911910399023122e-19,-1.0046438632664685e-05,-5.634375460722102e-06,1.0525042287983452e-18,1.0555421523701594e-05,1.4131634908362127e-05,-3.378704076657311e-05,-6.616117624809786e-18,-2.696964060115895e-16,-0.02156346389234722
-8.675337632736204e-08,3.3278090742180146e-18,9.105913778972728e-08,8.570813596615719e-08,-1.5176493406475417e-07,-4.348519786841087e-19,1.6722134016896035e-19,-2.0136491814584458e-05,-5.634375460722102e-06,1.0525042287983954e-18,1.0555421523701594e-05,1.4131634908362127e-05,-3.378704076657311e-05,-3.80801074231172e-18,-7.35637172496323e-18,-0.021563463892347187
-3.2480594390973756e-06,-5.361115235864297e-19,4.018872034917763e-06,4.0104759821860545e-06,-7.326646865834963e-06,1.891935981367624e-18,1.6887268531630824e-18,-0.0010147922109804179,-5.634375460722102e-06,1.0525042287983983e-18,1.0555421523701594e-05,1.4131634908362127e-05,-3.378704076657311e-05,-3.8080107423116605e-18,3.759615595716338e-18,-0.021563463892347198
-3.2153909726834934e-08,-8.0039421258491e-19,3.9785766419850966e-08,3.970310732511151e-08,-7.253315029746658e-08,1.140545374545275e-19,2.0742054351207827e-19,-1.0046438632666494e-05,-5.634375460722102e-06,1.0525042287983985e-18,1.0555421523701594e-05,1.4131634908362127e-05,-3.378704076657311e-05,-3.808010742311663e-18,3.7596155957163345e-18,-0.021563463892347208
-1.9990273282975485e-07,-3.344178397522136e-17,1.5963492554547993e-07,1.3964484843579446e-07,-2.3866823083406317e-07,1.4114328264839664e-18,1.6761964049228918e-20,-3.0270444179005896e-05,-5.634375460722102e-06,1.0525042287983985e-18,1.0555421523701594e-05,1.4131634908362127e-05,-3.378704076657311e-05,-3.808010742311663e-18,3.7596155957163345e-18,-0.021563463892347208
-3.2153909725872334e-08,-1.408517903964036e-19,3.978576642048504e-08,3.970310732473332e-08,-7.253315029837276e-08,7.283534932629529e-20,2.2452195921760958e-20,-1.0046438632665959e-05,-5.634375460722102e-06,1.0525042287983985e-18,1.0555421523701594e-05,1.4131634908362127e-05,-3.378704076657311e-05,-3.808010742311663e-18,3.7596155957163345e-18,-0.021563463892347208
-3.2153909724146385e-08,1.0021729750255046e-18,3.9785766422044973e-08,3.9703107324584745e-08,-7.253315029911157e-08,-2.5929323950849813e-19,-9.78560286861652e-20,-1.004643863266509e-05,-5.634375460722102e-06,1.0525042287983985e-18,1.0555421523701594e-05,1.4131634908362127e-05,-3.378704076657311e-05,-3.808010742311663e-18,3.7596155957163345e-18,-0.021563463892347208
-6.865581142166396e-06,-2.1475537509245785e-17,5.481728813641357e-06,4.795120955980497e-06,-8.19525579890914e-06,2.0347793212223756e-18,1.2406564386883845e-18,-0.001039390083560767,-5.634375460722102e-06,1.0525042287983985e-18,1.0555421523701594e-05,1.4131634908362127e-05,-3.378704076657311e-05,-3.808010742311663e-18,3.7596155957163345e-18,-0.021563463892347208
-8.675337632656096e-08,1.0105374872191833e-18,9.105913779127626e-08,8.570813596545791e-08,-1.517649340673182e-07,1.133260466015901e-19,1.1197666122344334e-19,-2.0136491814586217e-05,-5.634375460722102e-06,1.0525042287983985e-18,1.0555421523701594e-05,1.4131634908362127e-05,-3.378704076657311e-05,-3.808010742311663e-18,3.7596155957163345e-18,-0.021563463892347208
-3.215390972721988e-08,-1.1050303669611918e-18,3.978576641958974e-08,3.970310732459871e-08,-7.253315029750626e-08,2.2960751422571837e-19,7.846278737032946e-20,-1.0046438632666504e-05,-5.634375460722102e-06,1.0525042287983985e-18,1.0555421523701594e-05,1.4131634908362127e-05,-3.378704076657311e-05,-3.808010742311663e-18,3.7596155957163345e-18,-0.021563463892347208
-3.215390972723497e-08,-1.2512094742237728e-18,3.978576641912061e-08,3.970310732506565e-08,-7.253315029660982e-08,1.6335601553191466e-19,1.970399264820817e-20,-1.004643863266689e-05,-5.634375460722102e-06,1.0525042287983985e-18,1.0555421523701594e-05,1.4131634908362127e-05,-3.378704076657311e-05,-3.808010742311663e-18,3.7596155957163345e-18,-0.021563463892347208
5.776421893297492e-19,1.9632996479461216e-18,-4.2919935784971355e-19,1.8364760102414938e-18,2.533242299870428e-18,-2.913309063391612e-19,3.069955024681262e-19,1.8173531892449026e-18,-5.634375460722102e-06,1.0525042287983985e-18,1.0555421523701594e-05,1.4131634908362127e-05,-3.378704076657311e-05,-3.808010742311663e-18,3.7596155957163345e-18,-0.021563463892347208
-3.215390972572389e-08,-3.8101880264848443e-20,3.978576642060707e-08,3.9703107324754675e-08,-7.253315029852061e-08,3.5173030369685485e-20,5.875846707103393e-21,-1.004643863266587e-05,-5.634375460722102e-06,1.0525042287983985e-18,1.0555421523701594e-05,1.4131634908362127e-05,-3.378704076657311e-05,-3.808010742311663e-18,3.7596155957163345e-18,-0.021563463892347208
-3.215390972535505e-08,1.8934158196607988e-19,3.978576642084424e-08,3.9703107324793565e-08,-7.253315029867069e-08,-8.398857503190696e-21,-2.4159361246388433e-20,-1.0046438632665674e-05,-5.634375460722102e-06,1.0525042287983985e-18,1.0555421523701594e-05,1.4131634908362127e-05,-3.378704076657311e-05,-3.808010742311663e-18,3.7596155957163345e-18,-0.021563463892347208
-3.2153909727965604e-08,-1.5254808099674673e-18,3.978576641900015e-08,3.9703107323499716e-08,-7.253315029754213e-08,3.3812771151682906e-19,-2.0231080100072065e-19,-1.0046438632666925e-05,-5.634375460722102e-06,1.0525042287983985e-18,1.0555421523701594e-05,1.4131634908362127e-05,-3.378704076657311e-05,-3.808010742311663e-18,3.7596155957163345e-18,-0.021563463892347208
-3.2153909725610674e-08,3.8828205765075766e-20,3.97857664207089e-08,3.970310732473879e-08,-7.253315029860339e-08,-5.7968528056758225e-21,2.1658213046993938e-20,-1.0046438632665803e-05,-5.634375460722102e-06,1.0525042287983985e-18,1.0555421523701594e-05,1.4131634908362127e-05,-3.378704076657311e-05,-3.808010742311663e-18,3.7596155957163345e-18,-0.021563463892347208
-3.215390972587887e-08,-1.3643912339036133e-19,3.9785766420524046e-08,3.97031073248851e-08,-7.253315029838543e-08,1.3899458304469865e-19,6.509600303749108e-21,-1.0046438632665986e-05,-5.634375460722102e-06,1.0525042287983985e-18,1.0555421523701594e-05,1.4131634908362127e-05,-3.378704076657311e-05,-3.808010742311663e-18,3.7596155957163345e-18,-0.021563463892347208
1.1554970929224006e-20,3.658014183116128e-20,-1.903152927637588e-21,3.672904307559603e-20,4.2901681177241036e-20,2.4642670419064178e-21,2.4308915772272804e-21,3.6658213526633256e-20,-5.634375460722102e-06,1.0525042287983985e-18,1.0555421523701594e-05,1.4131634908362127e-05,-3.378704076657311e-05,-3.808010742311663e-18,3.7596155957163345e-18,-0.021563463892347208
-8.675337633236274e-08,5.1731580659931374e-18,9.105913778666531e-08,8.57081359644366e-08,-1.5176493406321596e-07,1.1742279216362258e-18,-3.320959071694472e-19,-2.0136491814586403e-05,-5.634375460722102e-06,1.0525042287983985e-18,1.0555421523701594e-05,1.4131634908362127e-05,-3.378704076657311e-05,-3.808010742311663e-18,3.7596155957163345e-18,-0.021563463892347208
-3.215390972438893e-08,9.103841974327821e-19,3.9785766421708834e-08,3.9703107324542354e-08,-7.253315029950044e-08,-1.6618691017557355e-19,-6.44186892797991e-20,-1.004643863266511e-05,-5.634375460722102e-06,1.0525042287983985e-18,1.0555421523701594e-05,1.4131634908362127e-05,-3.378704076657311e-05,-3.808010742311663e-18,3.7596155957163345e-18,-0.021563463892347208
-3.215390972323008e-08,1.927746850694296e-18,3.978576642203749e-08,3.970310732475009e-08,-7.25331502992913e-08,-7.4439082218321255e-19,4.401184495959296e-20,-1.0046438632664614e-05,-5.634375460722102e-06,1.0525042287983985e-18,1.0555421523701594e-05,1.4131634908362127e-05,-3.378704076657311e-05,-3.808010742311663e-18,3.7596155957163345e-18,-0.021563463892347208
-3.215390972333575e-08,1.3300031685123377e-18,3.9785766421884514e-08,3.970310732397238e-08,-7.253315030087949e-08,-6.879175582993863e-19,-2.1501697585837322e-19,-1.0046438632664661e-05,-5.634375460722102e-06,1.0525042287983985e-18,1.0555421523701594e-05,1.4131634908362127e-05,-3.378704076657311e-05,-3.808010742311663e-18,3.7596155957163345e-18,-0.021563463892347208
-3.215390972408198e-08,1.1167266163174996e-18,3.978576642208765e-08,3.970310732444212e-08,-7.253315030029894e-08,4.447682347069431e-20,9.897378258453193e-20,-1.0046438632664844e-05,-5.634375460722102e-06,1.0525042287983985e-18,1.0555421523701594e-05,1.4131634908362127e-05,-3.378704076657311e-05,-3.808010742311663e-18,3.7596155957163345e-18,-0.021563463892347208
-0.00010601759650995853,1.258130886376426e-18,-7.93568525431649e-06,-0.00017586008193158523,2.5298265437613032e-05,3.3782581125831634e-21,-4.1352981264442726e-19,-2.237001251565542e-05,-5.634375460722102e-06,1.0525042287983985e-18,1.0555421523701594e-05,1.4131634908362127e-05,-3.378704076657311e-05,-3.808010742311663e-18,3.7596155957163345e-18,-0.021563463892347208
-3.215390972739247e-08,-1.1861913424416467e-18,3.978576641905477e-08,3.9703107325480284e-08,-7.253315029774563e-08,2.842136544589217e-19,5.527350745277679e-20,-1.0046438632666745e-05,-5.634375460722102e-06,1.0525042287983985e-18,1.0555421523701594e-05,1.4131634908362127e-05,-3.378704076657311e-05,-3.808010742311663e-18,3.7596155957163345e-18,-0.021563463892347208
-3.2153909727997804e-08,-1.5061731863189716e-18,3.978576641820134e-08,3.970310732470331e-08,-7.253315029738437e-08,6.479258374809847e-19,-5.3839792097588505e-20,-1.004643863266707e-05,-5.634375460722102e-06,1.0525042287983985e-18,1.0555421523701594e-05,1.4131634908362127e-05,-3.378704076657311e-05,-3.808010742311663e-18,3.7596155957163345e-18,-0.021563463892347208
-3.2153909726418796e-08,-5.500585349206024e-19,3.978576642012911e-08,3.9703107324794485e-08,-7.253315029798693e-08,1.8035213963906637e-19,1.4682872446878035e-19,-1.0046438632666222e-05,-5.634375460722102e-06,1.0525042287983985e-18,1.0555421523701594e-05,1.4131634908362127e-05,-3.378704076657311e-05,-3.808010742311663e-18,3.7596155957163345e-18,-0.021563463892347208
-1.9990273283135097e-07,-1.393393492330041e-17,1.5963492554910415e-07,1.3964484843473774e-07,-2.386682308390377e-07,2.262820817640163e-19,6.151401675642557e-19,-3.0270444179005995e-05,-5.634375460722102e-06,1.0525042287983985e-18,1.0555421523701594e-05,1.4131634908362127e-05,-3.378704076657311e-05,-3.808010742311663e-18,3.7596155957163345e-18,-0.021563463892347208
-3.2153909723902844e-08,1.077600557050243e-18,3.978576642145916e-08,3.970310732429606e-08,-7.253315030082965e-08,-4.000725907399812e-19,6.781923547727474e-20,-1.0046438632664892e-05,-5.634375460722102e-06,1.0525042287983985e-18,1.0555421523701594e-05,1.4131634908362127e-05,-3.378704076657311e-05,-3.808010742311663e-18,3.7596155957163345e-18,-0.021563463892347208
-3.215390972529165e-08,2.364556394586465e-19,3.9785766421009264e-08,3.9703107324826705e-08,-7.253315029883334e-08,-7.702238043212625e-20,-1.4037979249584068e-20,-1.004643863266562e-05,-5.634375460722102e-06,1.0525042287983985e-18,1.0555421523701594e-05,1.4131634908362127e-05,-3.378704076657311e-05,-3.808010742311663e-18,3.7596155957163345e-18,-0.021563463892347208
-8.675337633282971e-08,4.146156239588073e-18,9.105913778653522e-08,8.570813596164991e-08,-1.5176493406323716e-07,-1.340284668324905e-18,-4.344935379337856e-19,-2.0136491814586816e-05,-5.634375460722102e-06,1.0525042287983985e-18,1.0555421523701594e-05,1.4131634908362127e-05,-3.378704076657311e-05,-3.808010742311663e-18,3.7596155957163345e-18,-0.021563463892347208
-1.1030061437502248e-07,3.5342811520013075e-20,1.0357557805774845e-07,9.293174138264561e-08,-1.6004974655825995e-07,1.9513561533224795e-20,3.2493307179687523e-20,-2.0381916295033376e-05,-7.163698996767414e-06,1.6484294746037247e-18,1.2006306148560267e-05,1.5322669497158253e-05,-3.563146747202908e-05,-3.764428249069684e-18,3.924822405568e-18,-0.02182628037354772
-3.215390972610279e-08,-2.434443540938316e-19,3.978576642027915e-08,3.970310732459727e-08,-7.25331502983366e-08,7.495370875459199e-20,1.2720641846502436e-20,-1.0046438632666049e-05,-5.634375460722102e-06,1.0525042287983985e-18,1.0555421523701594e-05,1.4131634908362127e-05,-3.378704076657311e-05,-3.808010742311663e-18,3.7596155957163345e-18,-0.021563463892347208
-8.675337632486622e-08,-8.136126694753102e-19,9.105913779233134e-08,8.570813596461693e-08,-1.5176493406922317e-07,-2.0905621985518662e-20,-7.557494570784584e-20,-2.0136491814586782e-05,-5.634375460722102e-06,1.0525042287983985e-18,1.0555421523701594e-05,1.4131634908362127e-05,-3.378704076657311e-05,-3.808010742311663e-18,3.7596155957163345e-18,-0.021563463892347208
-3.215390972575257e-08,-3.3563427887098713e-20,3.9785766420582426e-08,3.97031073247873e-08,-7.253315029847118e-08,4.287159061500551e-20,1.204145829344727e-20,-1.0046438632665886e-05,-5.634375460722102e-06,1.0525042287983985e-18,1.0555421523701594e-05,1.4131634908362127e-05,-3.378704076657311e-05,-3.808010742311663e-18,3.7596155957163345e-18,-0.021563463892347208
-8.675337632263708e-08,-6.971670812392004e-19,9.105913779306468e-08,8.570813596526825e-08,-1.5176493406898097e-07,-2.382804564257322e-19,6.252509104068419e-20,-2.0136491814585556e-05,-5.634375460722102e-06,1.0525042287983985e-18,1.0555421523701594e-05,1.4131634908362127e-05,-3.378704076657311e-05,-3.808010742311663e-18,3.7596155957163345e-18,-0.021563463892347208
-3.215390972467423e-08,7.154863117254392e-19,3.978576642186174e-08,3.970310732436631e-08,-7.253315029944624e-08,-9.176126746141608e-20,-1.4610832814439752e-19,-1.0046438632665166e-05,-5.634375460722102e-06,1.0525042287983985e-18,1.0555421523701594e-05,1.4131634908362127e-05,-3.378704076657311e-05,-3.808010742311663e-18,3.7596155957163345e-18,-0.021563463892347208
-3.215390972607713e-08,-3.0076051746773763e-19,3.978576642011393e-08,3.970310732500419e-08,-7.253315029832432e-08,1.9428120127130875e-19,8.741713446387672e-20,-1.0046438632666111e-05,-5.634375460722102e-06,1.0525042287983985e-18,1.0555421523701594e-05,1.4131634908362127e-05,-3.378704076657311e-05,-3.808010742311663e-18,3.7596155957163345e-18,-0.021563463892347208
-3.215390972405984e-08,1.1108811633417153e-18,3.9785766421329634e-08,3.970310732464973e-08,-7.253315030007473e-08,-5.902111581930996e-19,-3.693523625460435e-19,-1.0046438632664961e-05,-5.634375460722102e-06,1.0525042287983985e-18,1.0555421523701594e-05,1.4131634908362127e-05,-3.378704076657311e-05,-3.808010742311663e-18,3.7596155957163345e-18,-0.021563463892347208
-1.9990273283496386e-07,3.597120054205143e-18,1.5963492555270033e-07,1.396448484358061e-07,-2.3866823084033783e-07,-5.317397049517741e-20,3.781957158184259e-20,-3.0270444179005165e-05,-5.634375460722102e-06,1.0525042287983985e-18,1.0555421523701594e-05,1.4131634908362127e-05,-3.378704076657311e-05,-3.808010742311663e-18,3.7596155957163345e-18,-0.021563463892347208
-3.215390972819154e-08,-1.6589897950033808e-18,3.978576641901155e-08,3.970310732573373e-08,-7.253315029692477e-08,9.261677998314417e-19,7.286024405048562e-20,-1.004643863266715e-05,-5.634375460722102e-06,1.0525042287983985e-18,1.0555421523701594e-05,1.4131634908362127e-05,-3.378704076657311e-05,-3.808010742311663e-18,3.7596155957163345e-18,-0.021563463892347208
-3.215390972221313e-08,2.634216968210703e-18,3.9785766423006104e-08,3.9703107324997634e-08,-7.253315029974996e-08,-6.778071258600658e-19,2.4502457642279606e-19,-1.004643863266452e-05,-5.634375460722102e-06,1.0525042287983985e-18,1.0555421523701594e-05,1.4131634908362127e-05,-3.378704076657311e-05,-3.808010742311663e-18,3.7596155957163345e-18,-0.021563463892347208
-8.67533763166612e-08,-6.409507058554729e-19,9.105913779496499e-08,8.570813596552453e-08,-1.5176493407103524e-07,-2.830848128395661e-19,-1.3862959550477742e-21,-2.0136491814584973e-05,-5.634375460722102e-06,1.0525042287983985e-18,1.0555421523701594e-05,1.4131634908362127e-05,-3.378704076657311e-05,-3.808010742311663e-18,3.7596155957163345e-18,-0.021563463892347208
-3.215390972795554e-08,-1.3822870289554168e-18,3.978576641945363e-08,3.970310732527224e-08,-7.253315029695055e-08,2.896251797624636e-19,1.2538160895958459e-19,-1.0046438632667041e-05,-5.634375460722102e-06,1.0525042287983985e-18,1.0555421523701594e-05,1.4131634908362127e-05,-3.378704076657311e-05,-3.808010742311663e-18,3.7596155957163345e-18,-0.021563463892347208
-3.215390972748858e-08,-1.3235286540790706e-18,3.9785766418721415e-08,3.970310732492088e-08,-7.253315029676311e-08,4.0211694184531937e-19,3.3636378955384895e-19,-1.0046438632667152e-05,-5.634375460722102e-06,1.0525042287983985e-18,1.0555421523701594e-05,1.4131634908362127e-05,-3.378704076657311e-05,-3.808010742311663e-18,3.7596155957163345e-18,-0.021563463892347208
-3.215390972665127e-08,-8.218341691676635e-19,3.9785766420051045e-08,3.970310732432285e-08,-7.253315029828691e-08,2.343672596172823e-19,1.552807101121492e-19,-1.0046438632666328e-05,-5.634375460722102e-06,1.0525042287983985e-18,1.0555421523701594e-05,1.4131634908362127e-05,-3.378704076657311e-05,-3.808010742311663e-18,3.7596155957163345e-18,-0.021563463892347208
-7.457799083688716e-19,-2.1089859581106774e-18,1.8271138351647417e-20,-2.5425365009652526e-18,-2.7219857574509826e-18,6.745512548065423e-19,-4.613886620988144e-19,-1.789053460842747e-18,-5.634375460722102e-06,1.0525042287983985e-18,1.0555421523701594e-05,1.4131634908362127e-05,-3.378704076657311e-05,-3.808010742311663e-18,3.7596155957163345e-18,-0.021563463892347208
-2.8279309770060737e-19,-7.287384786875311e-19,7.55554605190244e-20,-1.0117184793671855e-18,-1.0671994116682404e-18,6.971434847805365e-20,-1.8736481269553184e-19,-7.360529219501236e-19,-5.634375460722102e-06,1.0525042287983985e-18,1.0555421523701594e-05,1.4131634908362127e-05,-3.378704076657311e-05,-3.808010742311663e-18,3.7596155957163345e-18,-0.021563463892347208
-3.2475448822916942e-06,8.158207886808306e-19,4.018362408486231e-06,4.010013839800852e-06,-7.325848180154123e-06,1.1485489643825282e-18,1.4162506701845218e-18,-0.001014690301899249,-5.634375460722102e-06,1.0525042287983985e-18,1.0555421523701594e-05,1.4131634908362127e-05,-3.378704076657311e-05,-3.808010742311663e-18,3.7596155957163345e-18,-0.021563463892347208
-1.9990273283243383e-07,-9.451333709576653e-18,1.5963492555020847e-07,1.3964484843610053e-07,-2.386682308365544e-07,1.7839655204921468e-19,1.151878990548514e-18,-3.02704441790046e-05,-5.634375460722102e-06,1.0525042287983985e-18,1.0555421523701594e-05,1.4131634908362127e-05,-3.378704076657311e-05,-3.808010742311663e-18,3.7596155957163345e-18,-0.021563463892347208
-3.2153909727525815e-08,-1.4497683644874023e-18,3.9785766419488e-08,3.9703107323900806e-08,-7.253315029828022e-08,6.714432592361785e-19,-6.076470187604905e-20,-1.0046438632666869e-05,-5.634375460722102e-06,1.0525042287983985e-18,1.0555421523701594e-05,1.4131634908362127e-05,-3.378704076657311e-05,-3.808010742311663e-18,3.7596155957163345e-18,-0.021563463892347208
2.775143037897957e-19,6.76135279001923e-19,-2.2908378987359045e-20,8.9369590545002e-19,9.00705369890692e-19,1.3700941247814737e-19,1.2323752707675734e-19,6.65087242488384e-19,-5.634375460722102e-06,1.0525042287983985e-18,1.0555421523701594e-05,1.4131634908362127e-05,-3.378704076657311e-05,-3.808010742311663e-18,3.7596155957163345e-18,-0.021563463892347208
-3.307676813158887e-19,-8.431340179270019e-19,-2.8848596638376325e-20,-1.1080533199557985e-18,-1.1725917854031081e-18,-1.315545503447788e-19,2.0877446480739302e-20,-8.272163308423916e-19,-5.634375460722102e-06,1.0525042287983985e-18,1.0555421523701594e-05,1.4131634908362127e-05,-3.378704076657311e-05,-3.808010742311663e-18,3.7596155957163345e-18,-0.021563463892347208
-8.675337632419295e-08,1.1643705155969737e-18,9.105913779199098e-08,8.570813596648958e-08,-1.5176493406669922e-07,5.833424518656015e-19,4.588166496737319e-21,-2.013649181458469e-05,-5.634375460722102e-06,1.0525042287983985e-18,1.0555421523701594e-05,1.4131634908362127e-05,-3.378704076657311e-05,-3.808010742311663e-18,3.7596155957163345e-18,-0.021563463892347208
-2.756576604226532e-20,-5.589382987352169e-20,-1.5492917497042613e-20,-8.02058843116957e-20,-7.453291499900369e-20,3.40238889693047e-21,-9.487878929036418e-21,-4.302239110730279e-20,-5.634375460722102e-06,1.0525042287983985e-18,1.0555421523701594e-05,1.4131634908362127e-05,-3.378704076657311e-05,-3.808010742311663e-18,3.7596155957163345e-18,-0.021563463892347208
-8.675337632040796e-08,2.7052522071583674e-19,9.105913779363111e-08,8.570813596664155e-08,-1.5176493406802872e-07,-2.949837543814656e-19,8.606140085305242e-20,-2.0136491814584285e-05,-5.634375460722102e-06,1.0525042287983985e-18,1.0555421523701594e-05,1.4131634908362127e-05,-3.378704076657311e-05,-3.808010742311663e-18,3.7596155957163345e-18,-0.021563463892347208
-8.67533763193442e-08,-2.314782796688904e-18,9.1059137793382e-08,8.570813596389883e-08,-1.5176493407198894e-07,-6.045479735458256e-19,4.0852885110816867e-19,-2.0136491814586047e-05,-5.634375460722102e-06,1.0525042287983985e-18,1.0555421523701594e-05,1.4131634908362127e-05,-3.378704076657311e-05,-3.808010742311663e-18,3.7596155957163345e-18,-0.021563463892347208
-3.215390972399845e-08,1.0815242853158626e-18,3.978576642220288e-08,3.970310732512207e-08,-7.253315029946076e-08,-7.130066305941134e-19,-1.1922756114245663e-19,-1.0046438632664876e-05,-5.634375460722102e-06,1.0525042287983985e-18,1.0555421523701594e-05,1.4131634908362127e-05,-3.378704076657311e-05,-3.808010742311663e-18,3.7596155957163345e-18,-0.021563463892347208
4.339987739374421e-19,1.7648017113669796e-18,-5.857380558386091e-19,1.8550387996579035e-18,2.5489458245812573e-18,4.0353645857683245e-19,-5.275939116225465e-20,2.2105313434709685e-18,-5.634375460722102e-06,1.0525042287983985e-18,1.0555421523701594e-05,1.4131634908362127e-05,-3.378704076657311e-05,-3.808010742311663e-18,3.7596155957163345e-18,-0.021563463892347208
-3.215390972724705e-08,-1.1829350032694967e-18,3.978576641895029e-08,3.9703107324651436e-08,-7.253315029782032e-08,3.312846716429239e-19,3.1995816483784677e-20,-1.004643863266667e-05,-5.634375460722102e-06,1.0525042287983985e-18,1.0555421523701594e-05,1.4131634908362127e-05,-3.378704076657311e-05,-3.808010742311663e-18,3.7596155957163345e-18,-0.021563463892347208
-3.215390972445937e-08,9.09015432645888e-19,3.978576642174375e-08,3.970310732472134e-08,-7.253315029935447e-08,-4.154393080655681e-19,-2.0592294020598128e-19,-1.0046438632665195e-05,-5.634375460722102e-06,1.0525042287983985e-18,1.0555421523701594e-05,1.4131634908362127e-05,-3.378704076657311e-05,-3.808010742311663e-18,3.7596155957163345e-18,-0.021563463892347208
-3.2153909724561015e-08,6.347965100191198e-19,3.978576642147644e-08,3.970310732412084e-08,-7.253315029982975e-08,-4.716949580718956e-19,-1.1272358221027594e-19,-1.0046438632665092e-05,-5.634375460722102e-06,1.0525042287983985e-18,1.0555421523701594e-05,1.4131634908362127e-05,-3.378704076657311e-05,-3.808010742311663e-18,3.7596155957163345e-18,-0.021563463892347208
-3.2153909725198056e-08,3.2263981296335976e-19,3.978576642115819e-08,3.97031073247402e-08,-7.253315029880929e-08,-1.5524056694661913e-19,-1.477220513626555e-20,-1.00464386326656e-05,-5.634375460722102e-06,1.0525042287983985e-18,1.0555421523701594e-05,1.4131634908362127e-05,-3.378704076657311e-05,-3.808010742311663e-18,3.7596155957163345e-18,-0.021563463892347208
-3.2153909725282594e-08,2.6926237480570825e-19,3.978576642107294e-08,3.970310732476486e-08,-7.253315029877052e-08,-3.4254530672765413e-20,2.5523123544636042e-20,-1.004643863266564e-05,-5.634375460722102e-06,1.0525042287983985e-18,1.0555421523701594e-05,1.4131634908362127e-05,-3.378704076657311e-05,-3.808010742311663e-18,3.7596155957163345e-18,-0.021563463892347208
-3.215390972524032e-08,2.9097171606033716e-19,3.9785766421106315e-08,3.970310732472584e-08,-7.253315029886945e-08,-1.0906226797223426e-19,5.3097401131305525e-20,-1.0046438632665603e-05,-5.634375460722102e-06,1.0525042287983985e-18,1.0555421523701594e-05,1.4131634908362127e-05,-3.378704076657311e-05,-3.808010742311663e-18,3.7596155957163345e-18,-0.021563463892347208
-3.215390972679116e-08,-6.326604905725632e-19,3.9785766419422804e-08,3.9703107325536334e-08,-7.253315029710043e-08,6.180728906561341e-19,4.672780318874607e-19,-1.0046438632666579e-05,-5.634375460722102e-06,1.0525042287983985e-18,1.0555421523701594e-05,1.4131634908362127e-05,-3.378704076657311e-05,-3.808010742311663e-18,3.7596155957163345e-18,-0.021563463892347208
-3.215390972285671e-08,1.8932642082107132e-18,3.978576642346862e-08,3.970310732432524e-08,-7.253315030038758e-08,-8.996195433186194e-19,-2.1345992996527082e-19,-1.0046438632664255e-05,-5.634375460722102e-06,1.0525042287983985e-18,1.0555421523701594e-05,1.4131634908362127e-05,-3.378704076657311e-05,-3.808010742311663e-18,3.7596155957163345e-18,-0.021563463892347208
-8.67533763263627e-08,6.087110521931774e-19,9.105913779150314e-08,8.570813596577712e-08,-1.5176493406757272e-07,-5.406859705421738e-20,3.4210394027336324e-19,-2.013649181458584e-05,-5.634375460722102e-06,1.0525042287983985e-18,1.0555421523701594e-05,1.4131634908362127e-05,-3.378704076657311e-05,-3.808010742311663e-18,3.7596155957163345e-18,-0.021563463892347208
-6.626163293282629e-19,-2.0596058162164294e-18,1.828771933651945e-19,-1.805269324248323e-18,-2.327193194553627e-18,3.1443422514401827e-20,-7.277741662702801e-20,-2.019847653436842e-18,-5.634375460722102e-06,1.0525042287983985e-18,1.0555421523701594e-05,1.4131634908362127e-05,-3.378704076657311e-05,-3.808010742311663e-18,3.7596155957163345e-18,-0.021563463892347208
6.117054342393633e-20,2.215090351307573e-19,-6.184055759345886e-20,2.172506773789415e-19,3.1427529936247857e-19,4.5433016159026197e-20,3.6547161122173664e-20,2.4913465192072087e-19,-5.634375460722102e-06,1.0525042287983985e-18,1.0555421523701594e-05,1.4131634908362127e-05,-3.378704076657311e-05,-3.808010742311663e-18,3.7596155957163345e-18,-0.021563463892347208
-1.174516211642994e-19,-2.917120108582747e-19,-1.5232166884743972e-20,-3.1626783257568913e-19,-3.954423011922702e-19,5.805295479392375e-20,-4.997625140481463e-20,-2.906916767786722e-19,-5.634375460722102e-06,1.0525042287983985e-18,1.0555421523701594e-05,1.4131634908362127e-05,-3.378704076657311e-05,-3.808010742311663e-18,3.7596155957163345e-18,-0.021563463892347208
-3.215390972326631e-08,1.887439088085182e-18,3.978576642274589e-08,3.970310732427377e-08,-7.253315030025897e-08,-7.032777783528373e-19,2.785946239404705e-19,-1.004643863266466e-05,-5.634375460722102e-06,1.0525042287983985e-18,1.0555421523701594e-05,1.4131634908362127e-05,-3.378704076657311e-05,-3.808010742311663e-18,3.7596155957163345e-18,-0.021563463892347208
-3.495015778007124e-07,-8.190724502661315e-19,2.3119359328307482e-07,1.9426966951092408e-07,-3.259437149745118e-07,-7.461882007654851e-19,-4.524434528535488e-19,-4.0404492040804586e-05,-5.634375460722102e-06,1.0525042287983985e-18,1.0555421523701594e-05,1.4131634908362127e-05,-3.378704076657311e-05,-3.808010742311663e-18,3.7596155957163345e-18,-0.021563463892347208
-3.215390972318127e-08,1.650455789731021e-18,3.978576642279209e-08,3.9703107324373285e-08,-7.253315030033347e-08,-5.775152270673e-19,1.3996638667638805e-19,-1.0046438632664392e-05,-5.634375460722102e-06,1.0525042287983985e-18,1.0555421523701594e-05,1.4131634908362127e-05,-3.378704076657311e-05,-3.808010742311663e-18,3.7596155957163345e-18,-0.021563463892347208
7.335965964634583e-19,2.1631169397568742e-18,-8.144780114980239e-20,2.531520683736862e-18,3.1651507746855162e-18,-2.0295739153380036e-19,7.707711168318762e-19,2.3843959849595743e-18,-5.634375460722102e-06,1.0525042287983985e-18,1.0555421523701594e-05,1.4131634908362127e-05,-3.378704076657311e-05,-3.808010742311663e-18,3.7596155957163345e-18,-0.021563463892347208
2.0061329798278535e-19,5.364103465563722e-19,-8.364235999410165e-21,5.052690512324488e-19,8.200760588841782e-19,7.631779229983992e-20,4.615014611061962e-20,5.166702398175145e-19,-5.634375460722102e-06,1.0525042287983985e-18,1.0555421523701594e-05,1.4131634908362127e-05,-3.378704076657311e-05,-3.808010742311663e-18,3.7596155957163345e-18,-0.021563463892347208
-3.215390972456152e-08,6.786988327859629e-19,3.978576642148082e-08,3.9703107325036505e-08,-7.253315029981355e-08,1.710244173855374e-19,-1.5834869140426841e-19,-1.0046438632665229e-05,-5.634375460722102e-06,1.0525042287983985e-18,1.0555421523701594e-05,1.4131634908362127e-05,-3.378704076657311e-05,-3.808010742311663e-18,3.7596155957163345e-18,-0.021563463892347208
-3.215390972587887e-08,-1.3944460826042396e-19,3.978576642044174e-08,3.970310732479174e-08,-7.253315029833388e-08,7.984089515653786e-20,6.5024367879111696e-21,-1.0046438632665939e-05,-5.634375460722102e-06,1.0525042287983985e-18,1.0555421523701594e-05,1.4131634908362127e-05,-3.378704076657311e-05,-3.808010742311663e-18,3.7596155957163345e-18,-0.021563463892347208
-8.675337631825228e-08,-9.867383415166757e-19,9.105913779399155e-08,8.570813596473878e-08,-1.517649340706016e-07,-1.1945422724920514e-19,8.16341888488465e-20,-2.013649181458541e-05,-5.634375460722102e-06,1.0525042287983985e-18,1.0555421523701594e-05,1.4131634908362127e-05,-3.378704076657311e-05,-3.808010742311663e-18,3.7596155957163345e-18,-0.021563463892347208
-3.2153909724478495e-08,9.177516358510305e-19,3.9785766421839244e-08,3.9703107324241564e-08,-7.253315029946021e-08,-1.2784162770592703e-19,-1.5712774706392343e-19,-1.0046438632665146e-05,-5.634375460722102e-06,1.0525042287983985e-18,1.0555421523701594e-05,1.4131634908362127e-05,-3.378704076657311e-05,-3.808010742311663e-18,3.7596155957163345e-18,-0.021563463892347208
8.500641236572193e-19,1.7752117396471035e-18,2.7694559975731748e-19,2.8733491163213295e-18,2.533351131519242e-18,-2.6318598589996453e-19,3.198953267736475e-19,1.429668555239235e-18,-5.634375460722102e-06,1.0525042287983985e-18,1.0555421523701594e-05,1.4131634908362127e-05,-3.378704076657311e-05,-3.808010742311663e-18,3.7596155957163345e-18,-0.021563463892347208
-8.675337632610608e-08,1.8295143347434494e-19,9.105913779159918e-08,8.570813596550427e-08,-1.5176493406726557e-07,2.9767777451054354e-19,5.023684896302322e-20,-2.0136491814585963e-05,-5.634375460722102e-06,1.0525042287983985e-18,1.0555421523701594e-05,1.4131634908362127e-05,-3.378704076657311e-05,-3.808010742311663e-18,3.7596155957163345e-18,-0.021563463892347208
-8.67533763114713e-08,-2.415833149836784e-18,9.105913779540408e-08,8.570813596546398e-08,-1.5176493407418583e-07,2.127338004899292e-19,-1.1644587351852282e-18,-2.013649181458489e-05,-5.634375460722102e-06,1.0525042287983985e-18,1.0555421523701594e-05,1.4131634908362127e-05,-3.378704076657311e-05,-3.808010742311663e-18,3.7596155957163345e-18,-0.021563463892347208
-8.675337631923652e-08,-2.527140698454722e-18,9.105913779402915e-08,8.570813596407383e-08,-1.517649340725007e-07,-1.2982712928352577e-18,5.228007735514445e-19,-2.0136491814586196e-05,-5.634375460722102e-06,1.0525042287983985e-18,1.0555421523701594e-05,1.4131634908362127e-05,-3.378704076657311e-05,-3.808010742311663e-18,3.7596155957163345e-18,-0.021563463892347208
-1.077021726511738e-07,9.41677954383333e-18,9.859870289400908e-08,8.93806671016985e-08,-1.5543104135249906e-07,-1.1744891153737897e-18,5.422561472556516e-19,-2.0158393863987786e-05,-5.634375460722102e-06,1.0525042287983985e-18,1.0555421523701594e-05,1.4131634908362127e-05,-3.378704076657311e-05,-3.808010742311663e-18,3.7596155957163345e-18,-0.021563463892347208
-3.2153909726059515e-08,-2.8015593032665456e-19,3.978576642015335e-08,3.970310732469613e-08,-7.253315029826789e-08,9.188818770610806e-20,-2.842871123721083e-21,-1.0046438632666037e-05,-5.634375460722102e-06,1.0525042287983985e-18,1.0555421523701594e-05,1.4131634908362127e-05,-3.378704076657311e-05,-3.808010742311663e-18,3.7596155957163345e-18,-0.021563463892347208
-3.2153909727583685e-08,-1.09313348387565e-18,3.97857664180747e-08,3.970310732518201e-08,-7.253315029644498e-08,9.841225635032096e-20,2.031477132349963e-19,-1.0046438632667274e-05,-5.634375460722102e-06,1.0525042287983985e-18,1.0555421523701594e-05,1.4131634908362127e-05,-3.378704076657311e-05,-3.808010742311663e-18,3.7596155957163345e-18,-0.021563463892347208
-3.215390972326077e-08,1.8119616517681853e-18,3.9785766423578024e-08,3.970310732426519e-08,-7.253315029992852e-08,-9.615572168916686e-19,2.0836569249265272e-19,-1.0046438632664592e-05,-5.634375460722102e-06,1.0525042287983985e-18,1.0555421523701594e-05,1.4131634908362127e-05,-3.378704076657311e-05,-3.808010742311663e-18,3.7596155957163345e-18,-0.021563463892347208
2.155707416271866e-19,5.051894123150312e-19,-2.9192780261017355e-20,5.841947398479347e-19,7.445367190553715e-19,2.854999258445042e-20,9.523348147481122e-20,4.469564647319645e-19,-5.634375460722102e-06,1.0525042287983985e-18,1.0555421523701594e-05,1.4131634908362127e-05,-3.378704076657311e-05,-3.808010742311663e-18,3.7596155957163345e-18,-0.021563463892347208
-3.215390972339865e-08,1.3006205087961525e-18,3.978576642351361e-08,3.9703107323848316e-08,-7.253315030069174e-08,-6.134587393354361e-19,-4.474053735915852e-19,-1.0046438632664346e-05,-5.634375460722102e-06,1.0525042287983985e-18,1.0555421523701594e-05,1.4131634908362127e-05,-3.378704076657311e-05,-3.808010742311663e-18,3.7596155957163345e-18,-0.021563463892347208
-3.215390972783729e-08,-1.5337795579811354e-18,3.978576641945843e-08,3.970310732523142e-08,-7.253315029708453e-08,8.45666355639558e-19,1.8876457987324984e-20,-1.0046438632667024e-05,-5.634375460722102e-06,1.0525042287983985e-18,1.0555421523701594e-05,1.4131634908362127e-05,-3.378704076657311e-05,-3.808010742311663e-18,3.7596155957163345e-18,-0.021563463892347208
-3.2153909723087674e-08,1.9225285933852938e-18,3.978576642284105e-08,3.970310732462371e-08,-7.253315030097916e-08,-5.108975836809062e-19,-6.99156795185438e-20,-1.0046438632664424e-05,-5.634375460722102e-06,1.0525042287983985e-18,1.0555421523701594e-05,1.4131634908362127e-05,-3.378704076657311e-05,-3.808010742311663e-18,3.7596155957163345e-18,-0.021563463892347208
-3.215390972473814e-08,6.14665956213422e-19,3.9785766421811053e-08,3.970310732479814e-08,-7.253315029926436e-08,-2.222444849215945e-19,-5.631110160156607e-20,-1.0046438632665237e-05,-5.634375460722102e-06,1.0525042287983985e-18,1.0555421523701594e-05,1.4131634908362127e-05,-3.378704076657311e-05,-3.808010742311663e-18,3.7596155957163345e-18,-0.021563463892347208
-1.2439259432486074e-19,-2.5722920984377285e-19,-2.7988529168261936e-20,-3.3714706097412977e-19,-3.2421834542224826e-19,5.725305781207519e-20,1.3085266122156332e-20,-2.0733133645751403e-19,-5.634375460722102e-06,1.0525042287983985e-18,1.0555421523701594e-05,1.4131634908362127e-05,-3.378704076657311e-05,-3.808010742311663e-18,3.7596155957163345e-18,-0.021563463892347208
-3.215390972672524e-08,-9.259099846250684e-19,3.9785766419735584e-08,3.970310732466618e-08,-7.25331502979025e-08,3.6392826844505703e-20,-1.4684763482213736e-19,-1.0046438632666393e-05,-5.634375460722102e-06,1.0525042287983985e-18,1.0555421523701594e-05,1.4131634908362127e-05,-3.378704076657311e-05,-3.808010742311663e-18,3.7596155957163345e-18,-0.021563463892347208
-8.675337633191592e-08,1.6295475749035698e-18,9.105913778958715e-08,8.570813596511035e-08,-1.5176493406423232e-07,1.5130108094388715e-18,7.372795272693042e-19,-2.0136491814586952e-05,-5.634375460722102e-06,1.0525042287983985e-18,1.0555421523701594e-05,1.4131634908362127e-05,-3.378704076657311e-05,-3.808010742311663e-18,3.7596155957163345e-18,-0.021563463892347208
-3.2153909727455366e-08,-9.354040272829478e-19,3.978576641946829e-08,3.970310732475381e-08,-7.253315029753135e-08,2.630506661130094e-19,-1.6067614689984282e-19,-1.00464386326669e-05,-5.634375460722102e-06,1.0525042287983985e-18,1.0555421523701594e-05,1.4131634908362127e-05,-3.378704076657311e-05,-3.808010742311663e-18,3.7596155957163345e-18,-0.021563463892347208
-3.215390972745386e-08,-1.2057445784383111e-18,3.978576641861912e-08,3.970310732469658e-08,-7.253315029699594e-08,-1.226197403170562e-19,-1.496112980239051e-19,-1.0046438632666969e-05,-5.634375460722102e-06,1.0525042287983985e-18,1.0555421523701594e-05,1.4131634908362127e-05,-3.378704076657311e-05,-3.808010742311663e-18,3.7596155957163345e-18,-0.021563463892347208
-8.675337631864981e-08,-6.545745997323409e-21,9.105913779470812e-08,8.570813596590795e-08,-1.5176493406918095e-07,-6.414504035693038e-19,-2.2163103789220377e-19,-2.0136491814584163e-05,-5.634375460722102e-06,1.0525042287983985e-18,1.0555421523701594e-05,1.4131634908362127e-05,-3.378704076657311e-05,-3.808010742311663e-18,3.7596155957163345e-18,-0.021563463892347208
-3.215390972696778e-08,-8.0219473625596545e-19,3.978576641967439e-08,3.97031073249083e-08,-7.253315029809431e-08,2.472809411323781e-19,1.477697424865321e-19,-1.004643863266659e-05,-5.634375460722102e-06,1.0525042287983985e-18,1.0555421523701594e-05,1.4131634908362127e-05,-3.378704076657311e-05,-3.808010742311663e-18,3.7596155957163345e-18,-0.021563463892347208
-8.675337632288063e-08,4.854162144359043e-19,9.105913779283531e-08,8.570813596656105e-08,-1.5176493406725538e-07,-1.9459585901253898e-19,1.6998595319896763e-19,-2.0136491814584614e-05,-5.634375460722102e-06,1.0525042287983985e-18,1.0555421523701594e-05,1.4131634908362127e-05,-3.378704076657311e-05,-3.808010742311663e-18,3.7596155957163345e-18,-0.021563463892347208
-3.215390972590202e-08,-1.5754861893944388e-19,3.978576642048122e-08,3.970310732474256e-08,-7.253315029842496e-08,3.4509860057492797e-20,1.0239353828704663e-20,-1.0046438632665947e-05,-5.634375460722102e-06,1.0525042287983985e-18,1.0555421523701594e-05,1.4131634908362127e-05,-3.378704076657311e-05,-3.808010742311663e-18,3.7596155957163345e-18,-0.021563463892347208
-5.493199759899435e-20,-1.2158821242041308e-19,-1.1816687309466046e-20,-1.6976535719234332e-19,-1.544612904699147e-19,-6.660036553613765e-21,-2.4627876236746447e-20,-1.2201062016885512e-19,-5.634375460722102e-06,1.0525042287983985e-18,1.0555421523701594e-05,1.4131634908362127e-05,-3.378704076657311e-05,-3.808010742311663e-18,3.7596155957163345e-18,-0.021563463892347208
-4.08790990268672e-08,-5.665695329309541e-20,4.525364949964602e-08,4.304894877586479e-08,-7.649233303507132e-08,8.532602155667867e-20,1.1822168950971515e-20,-1.0168882867953314e-05,-7.163302826304429e-06,1.379128522343255e-18,1.2006086320046114e-05,1.5322529350467523e-05,-3.563128809312214e-05,-3.720507696445538e-18,3.920485991862287e-18,-0.021826275615285603
2.332934546760934e-19,8.133789685716272e-19,-1.378049420785803e-19,8.847441782511955e-19,1.1631840725280777e-18,-1.263567514960564e-19,-2.4939458295921226e-20,8.437238104086757e-19,-5.634375460722102e-06,1.0525042287983985e-18,1.0555421523701594e-05,1.4131634908362127e-05,-3.378704076657311e-05,-3.808010742311663e-18,3.7596155957163345e-18,-0.021563463892347208
-3.2153909727365296e-08,-1.0943923715891555e-18,3.978576641962538e-08,3.970310732610643e-08,-7.253315029702523e-08,9.181961810765773e-19,-1.0399451774051459e-20,-1.004643863266701e-05,-5.634375460722102e-06,1.0525042287983985e-18,1.0555421523701594e-05,1.4131634908362127e-05,-3.378704076657311e-05,-3.808010742311663e-18,3.7596155957163345e-18,-0.021563463892347208
-3.215390972554274e-08,8.656268217261521e-20,3.9785766420747637e-08,3.9703107324753186e-08,-7.253315029861431e-08,-3.4719724619215154e-20,2.916315005331298e-20,-1.004643863266576e-05,-5.634375460722102e-06,1.0525042287983985e-18,1.0555421523701594e-05,1.4131634908362127e-05,-3.378704076657311e-05,-3.808010742311663e-18,3.7596155957163345e-18,-0.021563463892347208
-1.000305721431597e-19,-2.3753956391334184e-19,6.523035761558294e-21,-2.64303125706432e-19,-2.9306518914887563e-19,2.5809131643711614e-20,-3.527739975609928e-20,-2.0851213639144724e-19,-5.634375460722102e-06,1.0525042287983985e-18,1.0555421523701594e-05,1.4131634908362127e-05,-3.378704076657311e-05,-3.808010742311663e-18,3.7596155957163345e-18,-0.021563463892347208
-3.404670419090028e-19,-1.5904341206421089e-18,4.75070852325826e-19,-1.683790212033303e-18,-2.4681942980814264e-18,9.805611971298269e-20,-8.095188109696984e-20,-1.584925221831181e-18,-5.634375460722102e-06,1.0525042287983985e-18,1.0555421523701594e-05,1.4131634908362127e-05,-3.378704076657311e-05,-3.808010742311663e-18,3.7596155957163345e-18,-0.021563463892347208
-3.215390972426866e-08,9.93146845369597e-19,3.978576642182323e-08,3.970310732453685e-08,-7.25331502991195e-08,-4.2635197807398235e-19,1.9504730169578052e-20,-1.0046438632665063e-05,-5.634375460722102e-06,1.0525042287983985e-18,1.0555421523701594e-05,1.4131634908362127e-05,-3.378704076657311e-05,-3.808010742311663e-18,3.7596155957163345e-18,-0.021563463892347208
-8.67533763276076e-08,2.2497670442796224e-18,9.105913778986156e-08,8.570813596524161e-08,-1.5176493406557658e-07,1.485964944059731e-19,-4.676013288979979e-20,-2.0136491814585105e-05,-5.634375460722102e-06,1.0525042287983985e-18,1.0555421523701594e-05,1.4131634908362127e-05,-3.378704076657311e-05,-3.808010742311663e-18,3.7596155957163345e-18,-0.021563463892347208
-2.745382912453938e-07,-2.851778751685164e-17,1.7149440377223286e-07,1.4432646652048943e-07,-2.42884805489287e-07,-9.934242581450123e-19,-6.109461833851643e-19,-3.029248937128296e-05,-5.634375460722102e-06,1.0525042287983985e-18,1.0555421523701594e-05,1.4131634908362127e-05,-3.378704076657311e-05,-3.808010742311663e-18,3.7596155957163345e-18,-0.021563463892347208
-8.675337632098964e-08,-1.62642951971046e-18,9.105913779388073e-08,8.570813596451045e-08,-1.5176493407026766e-07,-3.2804349739801434e-19,-2.706599606405068e-19,-2.0136491814586393e-05,-5.634375460722102e-06,1.0525042287983985e-18,1.0555421523701594e-05,1.4131634908362127e-05,-3.378704076657311e-05,-3.808010742311663e-18,3.7596155957163345e-18,-0.021563463892347208
-3.215390972461939e-08,7.696003540378072e-19,3.9785766422090965e-08,3.970310732397996e-08,-7.253315029958831e-08,-3.708877251110576e-19,-3.4583109941537944e-20,-1.0046438632665003e-05,-5.634375460722102e-06,1.0525042287983985e-18,1.0555421523701594e-05,1.4131634908362127e-05,-3.378704076657311e-05,-3.808010742311663e-18,3.7596155957163345e-18,-0.021563463892347208
-3.215390972383038e-08,1.33815625406316e-18,3.9785766422333296e-08,3.9703107323277926e-08,-7.25331502998091e-08,-3.353592990058811e-19,-1.2230075455841376e-19,-1.0046438632664678e-05,-5.634375460722102e-06,1.0525042287983985e-18,1.0555421523701594e-05,1.4131634908362127e-05,-3.378704076657311e-05,-3.808010742311663e-18,3.7596155957163345e-18,-0.021563463892347208
-8.675337632806048e-08,8.660825858355659e-19,9.105913779054316e-08,8.57081359646754e-08,-1.5176493406794208e-07,4.199909257363997e-19,1.0518899114244947e-19,-2.0136491814587203e-05,-5.634375460722102e-06,1.0525042287983985e-18,1.0555421523701594e-05,1.4131634908362127e-05,-3.378704076657311e-05,-3.808010742311663e-18,3.7596155957163345e-18,-0.021563463892347208
-2.1799635681178193e-07,1.0297963891824298e-17,1.6695028133766088e-07,1.435684735098121e-07,-2.4301159796059135e-07,4.227535086780843e-19,-4.682729481266455e-19,-3.0393425546251098e-05,-7.164313588252579e-06,1.5174362115548296e-18,1.2006545022122435e-05,1.5322811762057096e-05,-3.563164557239823e-05,-3.733431917589161e-18,3.914691597474111e-18,-0.02182628503791954
-3.2153909728057686e-08,-1.7085398576669105e-18,3.978576641910139e-08,3.970310732343599e-08,-7.25331502969945e-08,1.1514973394034684e-19,4.2115056124329656e-19,-1.004643863266721e-05,-5.634375460722102e-06,1.0525042287983985e-18,1.0555421523701594e-05,1.4131634908362127e-05,-3.378704076657311e-05,-3.808010742311663e-18,3.7596155957163345e-18,-0.021563463892347208
-3.2153909728264e-08,-1.8233915319122564e-18,3.978576641880019e-08,3.970310732515623e-08,-7.253315029672366e-08,1.2181651633505867e-19,1.0695885822031628e-19,-1.0046438632667223e-05,-5.634375460722102e-06,1.0525042287983985e-18,1.0555421523701594e-05,1.4131634908362127e-05,-3.378704076657311e-05,-3.808010742311663e-18,3.7596155957163345e-18,-0.021563463892347208
-1.9990273283397762e-07,-3.121897946076471e-17,1.5963492554523456e-07,1.3964484843403732e-07,-2.386682308342752e-07,4.194475108590388e-18,5.873137175723504e-19,-3.0270444179005663e-05,-5.634375460722102e-06,1.0525042287983985e-18,1.0555421523701594e-05,1.4131634908362127e-05,-3.378704076657311e-05,-3.808010742311663e-18,3.7596155957163345e-18,-0.021563463892347208
-8.675337632397456e-08,-1.2601843065326413e-19,9.105913779252805e-08,8.57081359653962e-08,-1.517649340683475e-07,2.163062952775988e-20,-1.0931415550212718e-20,-2.0136491814585858e-05,-5.634375460722102e-06,1.0525042287983985e-18,1.0555421523701594e-05,1.4131634908362127e-05,-3.378704076657311e-05,-3.808010742311663e-18,3.7596155957163345e-18,-0.021563463892347208
-3.215390972674084e-08,-6.784340237975923e-19,3.9785766419917683e-08,3.970310732470377e-08,-7.253315029769581e-08,4.437290763374489e-19,-1.109158132628389e-19,-1.0046438632666352e-05,-5.634375460722102e-06,1.0525042287983985e-18,1.0555421523701594e-05,1.4131634908362127e-05,-3.378704076657311e-05,-3.808010742311663e-18,3.7596155957163345e-18,-0.021563463892347208
-3.215390972729636e-08,-9.57298911912543e-19,3.978576641869853e-08,3.970310732462191e-08,-7.253315029694064e-08,6.539693530884562e-19,1.241069382504517e-19,-1.0046438632666757e-05,-5.634375460722102e-06,1.0525042287983985e-18,1.0555421523701594e-05,1.4131634908362127e-05,-3.378704076657311e-05,-3.808010742311663e-18,3.7596155957163345e-18,-0.021563463892347208
-3.215390972816889e-08,-1.78049214555836e-18,3.9785766418825024e-08,3.9703107324650814e-08,-7.25331502967882e-08,2.9181025033873835e-19,3.4932763342664367e-19,-1.0046438632667038e-05,-5.634375460722102e-06,1.0525042287983985e-18,1.0555421523701594e-05,1.4131634908362127e-05,-3.378704076657311e-05,-3.808010742311663e-18,3.7596155957163345e-18,-0.021563463892347208
-2.005764439819403e-19,-5.410093691230502e-19,-3.628557684952614e-21,-7.307151245537362e-19,-8.176923893029897e-19,4.48917631094394e-20,-1.3371885140627166e-19,-5.575707186192591e-19,-5.634375460722102e-06,1.0525042287983985e-18,1.0555421523701594e-05,1.4131634908362127e-05,-3.378704076657311e-05,-3.808010742311663e-18,3.7596155957163345e-18,-0.021563463892347208
-8.67533763368351e-08,2.7704867218610922e-18,9.105913778730616e-08,8.570813596463293e-08,-1.517649340632492e-07,1.3989876697559073e-19,9.500915165634333e-19,-2.0136491814586427e-05,-5.634375460722102e-06,1.0525042287983985e-18,1.0555421523701594e-05,1.4131634908362127e-05,-3.378704076657311e-05,-3.808010742311663e-18,3.7596155957163345e-18,-0.021563463892347208
-2.1799635681297752e-07,1.0655791479914483e-17,1.669502813371409e-07,1.435684735075668e-07,-2.430115979626619e-07,-6.458197705045441e-19,8.089702628146491e-20,-3.0393425546252437e-05,-5.634375460722102e-06,1.0525042287983985e-18,1.0555421523701594e-05,1.4131634908362127e-05,-3.378704076657311e-05,-3.808010742311663e-18,3.7596155957163345e-18,-0.021563463892347208
-8.632045456334213e-19,-2.1383541758536817e-18,-8.385998448536041e-20,-2.6297272501946466e-18,-2.614864423879021e-18,1.3399551014881768e-23,-8.968631024138078e-20,-1.8501870102781047e-18,-5.634375460722102e-06,1.0525042287983985e-18,1.0555421523701594e-05,1.4131634908362127e-05,-3.378704076657311e-05,-3.808010742311663e-18,3.7596155957163345e-18,-0.021563463892347208
-3.215390972294477e-08,2.117906789716668e-18,3.978576642200448e-08,3.970310732574695e-08,-7.253315030066392e-08,-4.142254964737878e-19,1.7492118957044615e-19,-1.0046438632664517e-05,-5.634375460722102e-06,1.0525042287983985e-18,1.0555421523701594e-05,1.4131634908362127e-05,-3.378704076657311e-05,-3.808010742311663e-18,3.7596155957163345e-18,-0.021563463892347208
-3.215390972407846e-08,1.1195141083352733e-18,3.978576642133446e-08,3.970310732462856e-08,-7.253315029934964e-08,-9.125137206578032e-20,4.1953753581149047e-20,-1.0046438632665015e-05,-5.634375460722102e-06,1.0525042287983985e-18,1.0555421523701594e-05,1.4131634908362127e-05,-3.378704076657311e-05,-3.808010742311663e-18,3.7596155957163345e-18,-0.021563463892347208
-6.66188204009528e-06,-8.456448868034674e-17,5.012849972042678e-06,4.542489665102942e-06,-7.95341738346853e-06,-1.6161940770286585e-18,2.681255694040426e-19,-0.0010474641067780542,-5.634375460722102e-06,1.0525042287983985e-18,1.0555421523701594e-05,1.4131634908362127e-05,-3.378704076657311e-05,-3.808010742311663e-18,3.7596155957163345e-18,-0.021563463892347208
2.608973435538292e-19,6.879148047026902e-19,-2.3442953312621775e-20,9.148520932465273e-19,1.328355063644861e-18,-6.062648975922912e-20,5.340477900093971e-20,6.104888470306806e-19,-5.634375460722102e-06,1.0525042287983985e-18,1.0555421523701594e-05,1.4131634908362127e-05,-3.378704076657311e-05,-3.808010742311663e-18,3.7596155957163345e-18,-0.021563463892347208
-1.9990273285080631e-07,4.281710166650268e-17,1.5963492555456e-07,1.3964484843296498e-07,-2.386682308507383e-07,-3.0853615552865617e-18,-2.343829881747239e-18,-3.027044417900509e-05,-5.634375460722102e-06,1.0525042287983985e-18,1.0555421523701594e-05,1.4131634908362127e-05,-3.378704076657311e-05,-3.808010742311663e-18,3.7596155957163345e-18,-0.021563463892347208
-8.675337631464743e-08,-2.3596772199984783e-18,9.105913779477462e-08,8.570813596660774e-08,-1.5176493407187695e-07,-6.780464684728219e-19,-4.408359716230112e-19,-2.0136491814585146e-05,-5.634375460722102e-06,1.0525042287983985e-18,1.0555421523701594e-05,1.4131634908362127e-05,-3.378704076657311e-05,-3.808010742311663e-18,3.7596155957163345e-18,-0.021563463892347208
-4.404631117251136e-07,-9.012299393201732e-18,2.4334498674454767e-07,1.9898337491994817e-07,-3.3016971919306886e-07,-7.475314599660164e-19,-2.5542569327051437e-19,-4.0426537337178776e-05,-5.634375460722102e-06,1.0525042287983985e-18,1.0555421523701594e-05,1.4131634908362127e-05,-3.378704076657311e-05,-3.808010742311663e-18,3.7596155957163345e-18,-0.021563463892347208
-3.248059439092867e-06,1.9513974872668116e-18,4.018872034920284e-06,4.010475982186384e-06,-7.3266468658371035e-06,7.247398134553572e-19,1.3386691161881915e-18,-0.0010147922109804157,-5.634375460722102e-06,1.0525042287983985e-18,1.0555421523701594e-05,1.4131634908362127e-05,-3.378704076657311e-05,-3.808010742311663e-18,3.7596155957163345e-18,-0.021563463892347208
-3.2153909726654794e-08,-7.027661811232699e-19,3.978576641980284e-08,3.9703107324613776e-08,-7.253315029818962e-08,2.317104788170704e-19,-2.5057581237411133e-20,-1.0046438632666362e-05,-5.634375460722102e-06,1.0525042287983985e-18,1.0555421523701594e-05,1.4131634908362127e-05,-3.378704076657311e-05,-3.808010742311663e-18,3.7596155957163345e-18,-0.021563463892347208
4.048422132611263e-19,1.4154152985838432e-18,-2.2633850452797443e-19,1.3289971099875547e-18,1.6009968610862158e-18,-9.763302932088768e-20,2.5313610815726776e-19,1.5626057881903358e-18,-5.634375460722102e-06,1.0525042287983985e-18,1.0555421523701594e-05,1.4131634908362127e-05,-3.378704076657311e-05,-3.808010742311663e-18,3.7596155957163345e-18,-0.021563463892347208
-6.193003175217343e-19,-1.2800675136507335e-18,-3.356465529308547e-19,-1.7623088054187515e-18,-1.696435782147789e-18,1.1939751401942765e-19,-2.937394817548862e-19,-1.2619820599530253e-18,-5.634375460722102e-06,1.0525042287983985e-18,1.0555421523701594e-05,1.4131634908362127e-05,-3.378704076657311e-05,-3.808010742311663e-18,3.7596155957163345e-18,-0.021563463892347208
-3.215390972768935e-08,-1.408149978846109e-18,3.9785766418331885e-08,3.970310732553083e-08,-7.253315029776471e-08,6.295995427378854e-19,-2.50814189649892e-19,-1.004643863266686e-05,-5.634375460722102e-06,1.0525042287983985e-18,1.0555421523701594e-05,1.4131634908362127e-05,-3.378704076657311e-05,-3.808010742311663e-18,3.7596155957163345e-18,-0.021563463892347208
-3.2153909727920314e-08,-1.7820149574381418e-18,3.978576641848465e-08,3.9703107325221324e-08,-7.253315029760509e-08,5.503136466343553e-19,-3.1843987024236217e-19,-1.0046438632666947e-05,-5.634375460722102e-06,1.0525042287983985e-18,1.0555421523701594e-05,1.4131634908362127e-05,-3.378704076657311e-05,-3.808010742311663e-18,3.7596155957163345e-18,-0.021563463892347208
-3.2153909724725054e-08,6.1657765420980505e-19,3.978576642122943e-08,3.970310732473198e-08,-7.253315029898812e-08,-6.497298531235702e-20,-3.3060931799388416e-20,-1.0046438632665398e-05,-5.634375460722102e-06,1.0525042287983985e-18,1.0555421523701594e-05,1.4131634908362127e-05,-3.378704076657311e-05,-3.808010742311663e-18,3.7596155957163345e-18,-0.021563463892347208
-3.44510093655924e-06,-7.912915830463235e-17,1.0331612357339365e-06,5.712155302333144e-07,-6.984714477571377e-07,-1.708000279142692e-18,-2.5967265538522738e-18,-4.26172055825374e-05,-5.634375460722102e-06,1.0525042287983985e-18,1.0555421523701594e-05,1.4131634908362127e-05,-3.378704076657311e-05,-3.808010742311663e-18,3.7596155957163345e-18,-0.021563463892347208
-3.215390972452277e-08,8.056584568392316e-19,3.97857664218074e-08,3.9703107324507645e-08,-7.253315029984688e-08,-4.139012584187233e-20,-1.9243656030033597e-19,-1.0046438632665227e-05,-5.634375460722102e-06,1.0525042287983985e-18,1.0555421523701594e-05,1.4131634908362127e-05,-3.378704076657311e-05,-3.808010742311663e-18,3.7596155957163345e-18,-0.021563463892347208
-3.215390972344796e-08,1.5103955330374825e-18,3.978576642279479e-08,3.9703107324625337e-08,-7.253315030002985e-08,-4.680260280893096e-19,7.040702640440629e-20,-1.004643863266468e-05,-5.634375460722102e-06,1.0525042287983985e-18,1.0555421523701594e-05,1.4131634908362127e-05,-3.378704076657311e-05,-3.808010742311663e-18,3.7596155957163345e-18,-0.021563463892347208
5.873936468759226e-19,1.1339130536208683e-18,7.384798949734815e-20,1.4337162867808557e-18,1.4790219993313385e-18,-1.991987637979937e-19,1.7894405786375043e-19,1.1331384686063297e-18,-5.634375460722102e-06,1.0525042287983985e-18,1.0555421523701594e-05,1.4131634908362127e-05,-3.378704076657311e-05,-3.808010742311663e-18,3.7596155957163345e-18,-0.021563463892347208
-3.215390972464002e-08,6.756234993766027e-19,3.9785766421328145e-08,3.970310732392474e-08,-7.253315029983307e-08,-5.091091738305951e-19,-6.353856114667055e-20,-1.0046438632665076e-05,-5.634375460722102e-06,1.0525042287983985e-18,1.0555421523701594e-05,1.4131634908362127e-05,-3.378704076657311e-05,-3.808010742311663e-18,3.7596155957163345e-18,-0.021563463892347208
-3.215390972290401e-08,2.078688833235991e-18,3.978576642233092e-08,3.970310732494303e-08,-7.253315030062464e-08,-3.712055516083056e-19,2.38281386469971e-19,-1.0046438632664504e-05,-5.634375460722102e-06,1.0525042287983985e-18,1.0555421523701594e-05,1.4131634908362127e-05,-3.378704076657311e-05,-3.808010742311663e-18,3.7596155957163345e-18,-0.021563463892347208
-1.999027328288209e-07,-3.120904204639179e-17,1.5963492554655167e-07,1.396448484332135e-07,-2.3866823083563235e-07,1.6229686685949189e-18,6.968552945531441e-19,-3.0270444179004595e-05,-5.634375460722102e-06,1.0525042287983985e-18,1.0555421523701594e-05,1.4131634908362127e-05,-3.378704076657311e-05,-3.808010742311663e-18,3.7596155957163345e-18,-0.021563463892347208
-9.431822267487222e-19,-1.7268358024147585e-18,-8.703464847157321e-20,-2.3499918334710113e-18,-2.3196056229892353e-18,2.3278538150097353e-19,-5.283529126733992e-19,-1.626457193568304e-18,-5.634375460722102e-06,1.0525042287983985e-18,1.0555421523701594e-05,1.4131634908362127e-05,-3.378704076657311e-05,-3.808010742311663e-18,3.7596155957163345e-18,-0.021563463892347208
7.878835603776398e-19,2.1883007234727623e-18,-1.9268386507242595e-19,2.014486555000247e-18,2.470812650187407e-18,-3.093026893270001e-19,1.6511537806735936e-19,2.0587629943554396e-18,-5.634375460722102e-06,1.0525042287983985e-18,1.0555421523701594e-05,1.4131634908362127e-05,-3.378704076657311e-05,-3.808010742311663e-18,3.7596155957163345e-18,-0.021563463892347208
-1.9990273282499063e-07,-2.9972741126998456e-17,1.5963492554834965e-07,1.3964484843914845e-07,-2.386682308332905e-07,-9.086347471342339e-19,1.8859091650740482e-19,-3.027044417900529e-05,-5.634375460722102e-06,1.0525042287983985e-18,1.0555421523701594e-05,1.4131634908362127e-05,-3.378704076657311e-05,-3.808010742311663e-18,3.7596155957163345e-18,-0.021563463892347208
-8.675337632619463e-08,1.755377059781068e-18,9.105913779138916e-08,8.570813596638791e-08,-1.5176493406641525e-07,5.22686834619136e-19,2.8896446476413383e-19,-2.013649181458551e-05,-5.634375460722102e-06,1.0525042287983985e-18,1.0555421523701594e-05,1.4131634908362127e-05,-3.378704076657311e-05,-3.808010742311663e-18,3.7596155957163345e-18,-0.021563463892347208
0.14775255813398153,-2.489165816578423e-15,0.002069654370612868,-0.014981020752346311,0.014169342876432374,7.68474526908723e-18,-6.537424894635479e-18,-7.21276470265019e-05,-5.634375460722102e-06,1.0525042287983985e-18,1.0555421523701594e-05,1.4131634908362127e-05,-3.378704076657311e-05,-3.808010742311663e-18,3.7596155957163345e-18,-0.021563463892347208
-8.675337632448077e-08,-1.6929398668750436e-18,9.105913779255575e-08,8.570813596370868e-08,-1.51764934070448e-07,2.0891594517701502e-19,-2.919934097245326e-19,-2.0136491814587074e-05,-5.634375460722102e-06,1.0525042287983985e-18,1.0555421523701594e-05,1.4131634908362127e-05,-3.378704076657311e-05,-3.808010742311663e-18,3.7596155957163345e-18,-0.021563463892347208
-1.9990273283421514e-07,1.9754977413644818e-18,1.5963492555203128e-07,1.3964484843716967e-07,-2.3866823083767063e-07,2.1646066024000478e-19,4.92290179499911e-19,-3.0270444179003437e-05,-5.634375460722102e-06,1.0525042287983985e-18,1.0555421523701594e-05,1.4131634908362127e-05,-3.378704076657311e-05,-3.808010742311663e-18,3.7596155957163345e-18,-0.021563463892347208
-3.215390972310378e-08,1.7785970460121025e-18,3.9785766422669614e-08,3.9703107324474055e-08,-7.253315030089673e-08,-3.8621508400809265e-19,-3.8807031646782363e-19,-1.0046438632664466e-05,-5.634375460722102e-06,1.0525042287983985e-18,1.0555421523701594e-05,1.4131634908362127e-05,-3.378704076657311e-05,-3.808010742311663e-18,3.7596155957163345e-18,-0.021563463892347208
-3.215390972648069e-08,-5.705923427335036e-19,3.978576641990489e-08,3.970310732474965e-08,-7.253315029818035e-08,5.358544105504313e-20,2.711222219071071e-20,-1.0046438632666211e-05,-5.634375460722102e-06,1.0525042287983985e-18,1.0555421523701594e-05,1.4131634908362127e-05,-3.378704076657311e-05,-3.808010742311663e-18,3.7596155957163345e-18,-0.021563463892347208
-3.2153909727796025e-08,-1.2264729729409241e-18,3.978576641938537e-08,3.9703107325276176e-08,-7.253315029597587e-08,2.6715563537272678e-20,1.7669277480209522e-19,-1.0046438632667069e-05,-5.634375460722102e-06,1.0525042287983985e-18,1.0555421523701594e-05,1.4131634908362127e-05,-3.378704076657311e-05,-3.808010742311663e-18,3.7596155957163345e-18,-0.021563463892347208
1.1677432476167632e-18,2.1951669555858688e-18,2.6033098870118036e-19,3.4003605364071184e-18,3.2922492477483124e-18,6.514753934877594e-19,5.830505903860669e-19,1.8572920237200353e-18,-5.634375460722102e-06,1.0525042287983985e-18,1.0555421523701594e-05,1.4131634908362127e-05,-3.378704076657311e-05,-3.808010742311663e-18,3.7596155957163345e-18,-0.021563463892347208
-3.2153909724306905e-08,1.0231613365006029e-18,3.9785766422002205e-08,3.9703107324448254e-08,-7.253315029927165e-08,-1.8653581856372603e-19,5.956687844913539e-20,-1.0046438632665081e-05,-5.634375460722102e-06,1.0525042287983985e-18,1.0555421523701594e-05,1.4131634908362127e-05,-3.378704076657311e-05,-3.808010742311663e-18,3.7596155957163345e-18,-0.021563463892347208
-7.532481601398999e-19,-1.798549321454378e-18,-2.940761035339113e-20,-2.1559659505131688e-18,-2.6961520278086264e-18,2.332934489505625e-19,-4.063878841357083e-19,-1.7738295063535e-18,-5.634375460722102e-06,1.0525042287983985e-18,1.0555421523701594e-05,1.4131634908362127e-05,-3.378704076657311e-05,-3.808010742311663e-18,3.7596155957163345e-18,-0.021563463892347208
-8.675337632372598e-08,3.6775489064970373e-19,9.10591377924187e-08,8.570813596591278e-08,-1.517649340676867e-07,-4.098551982702004e-20,5.660830285219858e-20,-2.013649181458526e-05,-5.634375460722102e-06,1.0525042287983985e-18,1.0555421523701594e-05,1.4131634908362127e-05,-3.378704076657311e-05,-3.808010742311663e-18,3.7596155957163345e-18,-0.021563463892347208
-3.215390972379164e-08,1.2930264737455594e-18,3.978576642225245e-08,3.97031073243746e-08,-7.253315029951676e-08,-5.662619678768645e-19,-9.993429464727927e-20,-1.004643863266484e-05,-5.634375460722102e-06,1.0525042287983985e-18,1.0555421523701594e-05,1.4131634908362127e-05,-3.378704076657311e-05,-3.808010742311663e-18,3.7596155957163345e-18,-0.021563463892347208
3.646303760520111e-19,1.102724696945034e-18,1.429739838792382e-20,1.100625011365169e-18,1.4617821611345789e-18,-4.181530914945244e-19,2.4150861135508747e-19,1.1043257781517023e-18,-5.634375460722102e-06,1.0525042287983985e-18,1.0555421523701594e-05,1.4131634908362127e-05,-3.378704076657311e-05,-3.808010742311663e-18,3.7596155957163345e-18,-0.021563463892347208
-3.215390972388473e-08,1.3178669222305787e-18,3.978576642193624e-08,3.97031073250732e-08,-7.253315029983753e-08,-8.021000497209318e-19,1.4339585622777805e-19,-1.0046438632664915e-05,-5.634375460722102e-06,1.0525042287983985e-18,1.0555421523701594e-05,1.4131634908362127e-05,-3.378704076657311e-05,-3.808010742311663e-18,3.7596155957163345e-18,-0.021563463892347208
-3.215390972645704e-08,-5.6027049926796315e-19,3.978576641963715e-08,3.97031073244969e-08,-7.253315029827883e-08,2.6022320192321768e-19,-4.9692506415973614e-20,-1.0046438632666218e-05,-5.634375460722102e-06,1.0525042287983985e-18,1.0555421523701594e-05,1.4131634908362127e-05,-3.378704076657311e-05,-3.808010742311663e-18,3.7596155957163345e-18,-0.021563463892347208
-3.215390972335336e-08,1.551562021664619e-18,3.97857664226311e-08,3.97031073238551e-08,-7.253315030010612e-08,-3.476779368408419e-19,-1.0324180136111851e-19,-1.0046438632664372e-05,-5.634375460722102e-06,1.0525042287983985e-18,1.0555421523701594e-05,1.4131634908362127e-05,-3.378704076657311e-05,-3.808010742311663e-18,3.7596155957163345e-18,-0.021563463892347208
-6.865581142165816e-06,-2.0938458156097077e-17,5.48172881364297e-06,4.795120955976944e-06,-8.195255798909783e-06,8.121337380298557e-19,9.395797456440055e-19,-0.0010393900835607651,-5.634375460722102e-06,1.0525042287983985e-18,1.0555421523701594e-05,1.4131634908362127e-05,-3.378704076657311e-05,-3.808010742311663e-18,3.7596155957163345e-18,-0.021563463892347208
-2.1799635680874469e-07,-7.225088332343888e-18,1.6695028133372488e-07,1.435684735083705e-07,-2.430115979581086e-07,3.353228821457419e-19,4.0514116145011035e-21,-3.0393425546251976e-05,-5.634375460722102e-06,1.0525042287983985e-18,1.0555421523701594e-05,1.4131634908362127e-05,-3.378704076657311e-05,-3.808010742311663e-18,3.7596155957163345e-18,-0.021563463892347208
-3.215390972816839e-08,-1.8046934118449158e-18,3.978576641709204e-08,3.9703107324692596e-08,-7.253315029626534e-08,1.467354315328497e-19,3.102901995618181e-19,-1.0046438632667433e-05,-5.634375460722102e-06,1.0525042287983985e-18,1.0555421523701594e-05,1.4131634908362127e-05,-3.378704076657311e-05,-3.808010742311663e-18,3.7596155957163345e-18,-0.021563463892347208
8.953650337039177e-19,1.6610632174322252e-18,2.72024661885607e-19,2.2788852834786526e-18,2.080287051017544e-18,-2.0108597537117246e-19,2.0333257046365867e-19,1.5342269556653542e-18,-5.634375460722102e-06,1.0525042287983985e-18,1.0555421523701594e-05,1.4131634908362127e-05,-3.378704076657311e-05,-3.808010742311663e-18,3.7596155957163345e-18,-0.021563463892347208
-3.215390972661756e-08,-7.047339885891513e-19,3.978576641927962e-08,3.970310732543135e-08,-7.253315029780499e-08,2.5854082517644467e-19,9.811477886232118e-20,-1.0046438632666555e-05,-5.634375460722102e-06,1.0525042287983985e-18,1.0555421523701594e-05,1.4131634908362127e-05,-3.378704076657311e-05,-3.808010742311663e-18,3.7596155957163345e-18,-0.021563463892347208
-3.2153909724332064e-08,1.0201567220657666e-18,3.978576642156631e-08,3.9703107324879566e-08,-7.25331502992581e-08,-1.9759796598306897e-19,1.3447887285646771e-20,-1.0046438632665252e-05,-5.634375460722102e-06,1.0525042287983985e-18,1.0555421523701594e-05,1.4131634908362127e-05,-3.378704076657311e-05,-3.808010742311663e-18,3.7596155957163345e-18,-0.021563463892347208
6.812770888398272e-19,1.7354115205945365e-18,-1.3573746661366927e-19,1.7600236850602024e-18,2.126895541488765e-18,-3.717206971470526e-19,-1.937434004727069e-19,1.775054678488459e-18,-5.634375460722102e-06,1.0525042287983985e-18,1.0555421523701594e-05,1.4131634908362127e-05,-3.378704076657311e-05,-3.808010742311663e-18,3.7596155957163345e-18,-0.021563463892347208
-1.999027328307552e-07,-1.2770580455742584e-17,1.5963492554990526e-07,1.3964484843730967e-07,-2.386682308361038e-07,4.0326057630278385e-20,1.971870338483118e-20,-3.027044417900495e-05,-5.634375460722102e-06,1.0525042287983985e-18,1.0555421523701594e-05,1.4131634908362127e-05,-3.378704076657311e-05,-3.808010742311663e-18,3.7596155957163345e-18,-0.021563463892347208
-2.2431220531597787e-07,1.4441688953390964e-17,1.6800640959765883e-07,1.43879867570812e-07,-2.4321215989468947e-07,-6.927350584448337e-19,7.057150145689904e-20,-3.0393692495477145e-05,-5.634375460722102e-06,1.0525042287983985e-18,1.0555421523701594e-05,1.4131634908362127e-05,-3.378704076657311e-05,-3.808010742311663e-18,3.7596155957163345e-18,-0.021563463892347208
0.001615512523666875,-2.0309367088624193e-17,-0.17231154183855762,0.008124481992174346,0.014559408136686327,1.3447157270581599e-16,8.175729406596177e-17,-0.00010289038850239212,-5.634375460722102e-06,1.0525042287983985e-18,1.0555421523701594e-05,1.4131634908362127e-05,-3.378704076657311e-05,-3.808010742311663e-18,3.7596155957163345e-18,-0.021563463892347208
-3.2153909727208304e-08,-9.687854889228419e-19,3.978576641884208e-08,3.9703107325886026e-08,-7.253315029693148e-08,1.3370423525934347e-19,9.940735836104865e-20,-1.004643863266695e-05,-5.634375460722102e-06,1.0525042287983985e-18,1.0555421523701594e-05,1.4131634908362127e-05,-3.378704076657311e-05,-3.808010742311663e-18,3.7596155957163345e-18,-0.021563463892347208
-3.2480594390943483e-06,1.002464908226561e-18,4.018872034919241e-06,4.010475982186548e-06,-7.32664686583625e-06,9.450746040071835e-19,1.4669367604348264e-18,-0.0010147922109804166,-5.634375460722102e-06,1.0525042287983985e-18,1.0555421523701594e-05,1.4131634908362127e-05,-3.378704076657311e-05,-3.808010742311663e-18,3.7596155957163345e-18,-0.021563463892347208
4.387885390250629e-19,9.962711860427035e-19,-5.921171279950802e-20,1.108517838993543e-18,1.5121896836309025e-18,-1.753562096283726e-19,1.8691209187074112e-20,1.0095259417547918e-18,-5.634375460722102e-06,1.0525042287983985e-18,1.0555421523701594e-05,1.4131634908362127e-05,-3.378704076657311e-05,-3.808010742311663e-18,3.7596155957163345e-18,-0.021563463892347208
-3.215390972386812e-08,1.2474441394749526e-18,3.978576642239477e-08,3.970310732392209e-08,-7.253315030007154e-08,-8.941564907183706e-20,-1.909345567408607e-19,-1.0046438632664971e-05,-5.634375460722102e-06,1.0525042287983985e-18,1.0555421523701594e-05,1.4131634908362127e-05,-3.378704076657311e-05,-3.808010742311663e-18,3.7596155957163345e-18,-0.021563463892347208
-4.534265203824686e-06,6.370692222552408e-18,4.719522663519478e-06,4.430420380764154e-06,-7.834432649813643e-06,1.6431816817220548e-18,2.534151859197185e-18,-0.001037631343165071,-7.767768178563088e-06,6.946690573728243e-19,1.225761499345225e-05,1.5445571995410623e-05,-3.575537344703905e-05,-3.775024521714378e-18,3.8950353672677425e-18,-0.02183000278179946
-8.675337632387996e-08,2.4601316900029137e-19,9.10591377924073e-08,8.570813596575698e-08,-1.517649340678149e-07,9.285038794694839e-20,5.271228942982332e-20,-2.0136491814585454e-05,-5.634375460722102e-06,1.0525042287983985e-18,1.0555421523701594e-05,1.4131634908362127e-05,-3.378704076657311e-05,-3.808010742311663e-18,3.7596155957163345e-18,-0.021563463892347208
3.482266130853317e-19,1.2559265991443632e-18,-9.393613283914998e-20,1.578696675520278e-18,2.1354241488224694e-18,6.44658803033079e-20,-2.4771340016540415e-20,1.377074279739318e-18,-5.634375460722102e-06,1.0525042287983985e-18,1.0555421523701594e-05,1.4131634908362127e-05,-3.378704076657311e-05,-3.808010742311663e-18,3.7596155957163345e-18,-0.021563463892347208
-3.215390972382284e-08,1.3110463109127285e-18,3.978576642154758e-08,3.970310732480596e-08,-7.25331502997152e-08,-2.0931599389597117e-19,8.91824715211895e-20,-1.0046438632664795e-05,-5.634375460722102e-06,1.0525042287983985e-18,1.0555421523701594e-05,1.4131634908362127e-05,-3.378704076657311e-05,-3.808010742311663e-18,3.7596155957163345e-18,-0.021563463892347208
-3.2153909727924344e-08,-1.4846660867026693e-18,3.9785766417739856e-08,3.9703107324155114e-08,-7.253315029659818e-08,3.956994793754042e-19,2.0007810157695917e-19,-1.00464386326671e-05,-5.634375460722102e-06,1.0525042287983985e-18,1.0555421523701594e-05,1.4131634908362127e-05,-3.378704076657311e-05,-3.808010742311663e-18,3.7596155957163345e-18,-0.021563463892347208
-3.215390972747952e-08,-1.3258854293118912e-18,3.978576641915772e-08,3.970310732444771e-08,-7.253315029662487e-08,4.482639611315811e-19,-1.554815233594446e-19,-1.0046438632666862e-05,-5.634375460722102e-06,1.0525042287983985e-18,1.0555421523701594e-05,1.4131634908362127e-05,-3.378704076657311e-05,-3.808010742311663e-18,3.7596155957163345e-18,-0.021563463892347208
-3.215390972410915e-08,1.2039145062932764e-18,3.978576642233074e-08,3.970310732413909e-08,-7.253315029946608e-08,-1.1300996016859802e-19,-1.168156424899657e-19,-1.0046438632665039e-05,-5.634375460722102e-06,1.0525042287983985e-18,1.0555421523701594e-05,1.4131634908362127e-05,-3.378704076657311e-05,-3.808010742311663e-18,3.7596155957163345e-18,-0.021563463892347208
-3.215390972423646e-08,1.1162341111322786e-18,3.9785766421967126e-08,3.9703107324621704e-08,-7.253315029942243e-08,-5.533527472640407e-19,1.5286067811557978e-19,-1.0046438632665097e-05,-5.634375460722102e-06,1.0525042287983985e-18,1.0555421523701594e-05,1.4131634908362127e-05,-3.378704076657311e-05,-3.808010742311663e-18,3.7596155957163345e-18,-0.021563463892347208
-4.099024741308079e-08,-6.663239908130324e-19,4.5315863882657154e-08,4.308520407386433e-08,-7.653402164004156e-08,4.740136931091388e-19,7.623991332647305e-20,-1.0170112148311946e-05,-7.1827795162598704e-06,1.902439751935942e-18,1.2022592199022968e-05,1.5335433797259275e-05,-3.565070727758328e-05,-3.790508227267163e-18,3.907217858349328e-18,-0.021828914116707485
-3.215390972352495e-08,1.4038443051489425e-18,3.978576642196043e-08,3.970310732510138e-08,-7.253315029959101e-08,-4.638592484664991e-19,-6.89603344691154e-20,-1.0046438632664883e-05,-5.634375460722102e-06,1.0525042287983985e-18,1.0555421523701594e-05,1.4131634908362127e-05,-3.378704076657311e-05,-3.808010742311663e-18,3.7596155957163345e-18,-0.021563463892347208
-3.215390972617425e-08,-2.8989375561358607e-19,3.978576642025229e-08,3.970310732507586e-08,-7.253315029803257e-08,1.3094646336048943e-20,1.4112231016928605e-19,-1.0046438632666188e-05,-5.634375460722102e-06,1.0525042287983985e-18,1.0555421523701594e-05,1.4131634908362127e-05,-3.378704076657311e-05,-3.808010742311663e-18,3.7596155957163345e-18,-0.021563463892347208
-3.215390972813971e-08,-1.6598794865599795e-18,3.97857664193809e-08,3.9703107325382935e-08,-7.253315029630345e-08,2.920974176325903e-19,-3.2764530652684747e-19,-1.004643863266721e-05,-5.634375460722102e-06,1.0525042287983985e-18,1.0555421523701594e-05,1.4131634908362127e-05,-3.378704076657311e-05,-3.808010742311663e-18,3.7596155957163345e-18,-0.021563463892347208
-8.675337632934462e-08,4.9807327260317215e-18,9.105913778916893e-08,8.570813596627698e-08,-1.5176493406300245e-07,6.119595648096543e-19,2.0336335254894461e-19,-2.0136491814585688e-05,-5.634375460722102e-06,1.0525042287983985e-18,1.0555421523701594e-05,1.4131634908362127e-05,-3.378704076657311e-05,-3.808010742311663e-18,3.7596155957163345e-18,-0.021563463892347208
-7.350057563999411e-19,-1.550874240097459e-18,-3.76297639553157e-20,-1.8975661134543073e-18,-2.1840735867763155e-18,3.3921298822219007e-19,-1.3599306295567688e-19,-1.4490268182455658e-18,-5.634375460722102e-06,1.0525042287983985e-18,1.0555421523701594e-05,1.4131634908362127e-05,-3.378704076657311e-05,-3.808010742311663e-18,3.7596155957163345e-18,-0.021563463892347208
-4.39246126034694e-08,-6.190361799328598e-19,4.604305118144779e-08,4.33144873020772e-08,-7.667515455644526e-08,5.154439640069147e-19,7.522151743063317e-20,-1.0169148651257345e-05,-7.696972513757915e-06,1.2804687041310917e-18,1.2215519699577092e-05,1.5417043199847055e-05,-3.571644912903362e-05,-3.772795233609803e-18,3.91830165417842e-18,-0.02182684608695955
-8.675337633200347e-08,4.865405454440846e-18,9.105913778832856e-08,8.570813596707949e-08,-1.5176493406188995e-07,1.2914648970454116e-18,1.8998859718333956e-18,-2.013649181458537e-05,-5.634375460722102e-06,1.0525042287983985e-18,1.0555421523701594e-05,1.4131634908362127e-05,-3.378704076657311e-05,-3.808010742311663e-18,3.7596155957163345e-18,-0.021563463892347208
-3.2153909722352515e-08,2.6073149935977177e-18,3.978576642417707e-08,3.9703107324860256e-08,-7.253315030134057e-08,-4.979350117511855e-19,2.3217890869776564e-20,-1.0046438632664395e-05,-5.634375460722102e-06,1.0525042287983985e-18,1.0555421523701594e-05,1.4131634908362127e-05,-3.378704076657311e-05,-3.808010742311663e-18,3.7596155957163345e-18,-0.021563463892347208
-2.5211767980119264e-07,-7.767935179778935e-20,1.6996572698753587e-07,1.4398004217170379e-07,-2.42698294863402e-07,-1.226873501635231e-19,7.692535658016214e-20,-3.029244162236556e-05,-5.634375460722102e-06,1.0525042287983985e-18,1.0555421523701594e-05,1.4131634908362127e-05,-3.378704076657311e-05,-3.808010742311663e-18,3.7596155957163345e-18,-0.021563463892347208
-3.215390972268764e-08,2.1079481077626885e-18,3.978576642395667e-08,3.970310732459274e-08,-7.253315029994647e-08,-3.274981163534627e-19,8.833834403555353e-20,-1.0046438632664306e-05,-5.634375460722102e-06,1.0525042287983985e-18,1.0555421523701594e-05,1.4131634908362127e-05,-3.378704076657311e-05,-3.808010742311663e-18,3.7596155957163345e-18,-0.021563463892347208
1.5856181799986502e-21,4.0360509796368316e-21,-3.852582747783297e-22,4.612536840612288e-21,6.0992786150107464e-21,3.7513633461969764e-22,5.644918404745114e-22,3.69200997068679e-21,-5.634375460722102e-06,1.0525042287983985e-18,1.0555421523701594e-05,1.4131634908362127e-05,-3.378704076657311e-05,-3.808010742311663e-18,3.7596155957163345e-18,-0.021563463892347208
-1.9990273283264717e-07,-9.9500485055733e-18,1.5963492554990737e-07,1.3964484843433698e-07,-2.386682308378109e-07,7.115161631645888e-19,4.2360921178418716e-19,-3.0270444179004768e-05,-5.634375460722102e-06,1.0525042287983985e-18,1.0555421523701594e-05,1.4131634908362127e-05,-3.378704076657311e-05,-3.808010742311663e-18,3.7596155957163345e-18,-0.021563463892347208
-8.675337632350257e-08,-1.5040131919425644e-18,9.105913779281016e-08,8.570813596390484e-08,-1.5176493407043522e-07,-1.6916707992636481e-19,-1.345787990016076e-19,-2.013649181458674e-05,-5.634375460722102e-06,1.0525042287983985e-18,1.0555421523701594e-05,1.4131634908362127e-05,-3.378704076657311e-05,-3.808010742311663e-18,3.7596155957163345e-18,-0.021563463892347208
-3.2153909723142526e-08,1.7733345279432364e-18,3.978576642342703e-08,3.970310732502691e-08,-7.25331502994744e-08,-9.678154878596851e-20,-2.9503721836954053e-19,-1.004643863266454e-05,-5.634375460722102e-06,1.0525042287983985e-18,1.0555421523701594e-05,1.4131634908362127e-05,-3.378704076657311e-05,-3.808010742311663e-18,3.7596155957163345e-18,-0.021563463892347208
-3.215390972791629e-08,-1.5317002075338722e-18,3.978576641957405e-08,3.9703107325965945e-08,-7.253315029599726e-08,-8.750733051077085e-20,4.681775698319064e-20,-1.0046438632667382e-05,-5.634375460722102e-06,1.0525042287983985e-18,1.0555421523701594e-05,1.4131634908362127e-05,-3.378704076657311e-05,-3.808010742311663e-18,3.7596155957163345e-18,-0.021563463892347208
-3.215390972392348e-08,1.2335710655333918e-18,3.978576642203295e-08,3.970310732470424e-08,-7.253315029977644e-08,-2.6841274790202865e-19,-1.8387807174763154e-19,-1.0046438632665022e-05,-5.634375460722102e-06,1.0525042287983985e-18,1.0555421523701594e-05,1.4131634908362127e-05,-3.378704076657311e-05,-3.808010742311663e-18,3.7596155957163345e-18,-0.021563463892347208
-8.67533763318032e-08,2.702425839651379e-18,9.105913778837633e-08,8.570813596464052e-08,-1.5176493406421998e-07,1.3497776021995768e-18,7.031081450445568e-19,-2.0136491814586223e-05,-5.634375460722102e-06,1.0525042287983985e-18,1.0555421523701594e-05,1.4131634908362127e-05,-3.378704076657311e-05,-3.808010742311663e-18,3.7596155957163345e-18,-0.021563463892347208
-1.6772168651354292e-07,2.1700922905058924e-17,1.5082323136567198e-07,1.3565572847735585e-07,-2.3482464055895723e-07,3.024165391496057e-19,1.1194279077233485e-19,-3.0248494484558198e-05,-5.634375460722102e-06,1.0525042287983985e-18,1.0555421523701594e-05,1.4131634908362127e-05,-3.378704076657311e-05,-3.808010742311663e-18,3.7596155957163345e-18,-0.021563463892347208
-8.675337632301246e-08,1.4029848635557955e-18,9.105913779255237e-08,8.570813596733222e-08,-1.5176493406644193e-07,-2.294876270528791e-19,1.0943484945762048e-19,-2.0136491814584163e-05,-5.634375460722102e-06,1.0525042287983985e-18,1.0555421523701594e-05,1.4131634908362127e-05,-3.378704076657311e-05,-3.808010742311663e-18,3.7596155957163345e-18,-0.021563463892347208
-3.2153909724907716e-08,5.24895261973228e-19,3.978576642118196e-08,3.970310732485164e-08,-7.253315029906892e-08,-1.5717960031465684e-20,5.534795760913881e-20,-1.0046438632665457e-05,-5.634375460722102e-06,1.0525042287983985e-18,1.0555421523701594e-05,1.4131634908362127e-05,-3.378704076657311e-05,-3.808010742311663e-18,3.7596155957163345e-18,-0.021563463892347208
-3.215390972827305e-08,-1.9605764070210443e-18,3.978576641815668e-08,3.9703107324265976e-08,-7.25331502970735e-08,-1.908907426422169e-19,5.673234684892572e-20,-1.0046438632666975e-05,-5.634375460722102e-06,1.0525042287983985e-18,1.0555421523701594e-05,1.4131634908362127e-05,-3.378704076657311e-05,-3.808010742311663e-18,3.7596155957163345e-18,-0.021563463892347208
-3.215390972375541e-08,1.3054917207978337e-18,3.9785766422126765e-08,3.97031073237255e-08,-7.253315030106001e-08,-3.3154028369382855e-19,-3.3023594693869754e-19,-1.0046438632664331e-05,-5.634375460722102e-06,1.0525042287983985e-18,1.0555421523701594e-05,1.4131634908362127e-05,-3.378704076657311e-05,-3.808010742311663e-18,3.7596155957163345e-18,-0.021563463892347208
-1.2754240790411555e-19,-5.402512597210354e-19,1.1649152979945291e-19,-4.607934795819062e-19,-6.306907678882365e-19,1.4882698179140899e-19,-6.690652725370333e-20,-6.547492306704655e-19,-5.634375460722102e-06,1.0525042287983985e-18,1.0555421523701594e-05,1.4131634908362127e-05,-3.378704076657311e-05,-3.808010742311663e-18,3.7596155957163345e-18,-0.021563463892347208
-3.2480594390964095e-06,-1.549989085285808e-19,4.018872034917689e-06,4.010475982187295e-06,-7.326646865834273e-06,9.360076469077484e-19,1.7283701533211497e-18,-0.0010147922109804179,-5.634375460722102e-06,1.0525042287983985e-18,1.0555421523701594e-05,1.4131634908362127e-05,-3.378704076657311e-05,-3.808010742311663e-18,3.7596155957163345e-18,-0.021563463892347208
8.531403356193644e-19,1.888048258508948e-18,2.9360306135826886e-21,2.392075868537252e-18,2.6125934080605032e-18,-3.181619429539549e-19,4.0872305516007206e-19,1.4533763145779213e-18,-5.634375460722102e-06,1.0525042287983985e-18,1.0555421523701594e-05,1.4131634908362127e-05,-3.378704076657311e-05,-3.808010742311663e-18,3.7596155957163345e-18,-0.021563463892347208
-2.2431220531603422e-07,1.2917164736287457e-17,1.6800640959813235e-07,1.4387986756951156e-07,-2.4321215989584377e-07,-1.2457592400223696e-18,1.520206133360187e-19,-3.0393692495477728e-05,-7.698361242006099e-06,1.7147868979767666e-18,1.2216045774174366e-05,1.5417348163545294e-05,-3.571682315524393e-05,-3.744574669622094e-18,3.903618380245917e-18,-0.021826855530047255
6.63051225670238e-19,1.489682357466307e-18,-2.0257375925584985e-19,1.2497396530845767e-18,1.678010272247882e-18,-1.6791456740633143e-19,2.173034120905821e-19,1.3468947472432285e-18,-5.634375460722102e-06,1.0525042287983985e-18,1.0555421523701594e-05,1.4131634908362127e-05,-3.378704076657311e-05,-3.808010742311663e-18,3.7596155957163345e-18,-0.021563463892347208
-3.250288864208467e-06,2.0794672402353667e-18,4.020242528151686e-06,4.011555087119781e-06,-7.328385557119558e-06,1.2885009225546e-19,1.5454092695804165e-18,-0.0010149948944598254,-5.634375460722102e-06,1.0525042287983985e-18,1.0555421523701594e-05,1.4131634908362127e-05,-3.378704076657311e-05,-3.808010742311663e-18,3.7596155957163345e-18,-0.021563463892347208
-3.215390972448906e-08,7.341111020761539e-19,3.978576642161392e-08,3.970310732436221e-08,-7.253315029975802e-08,-4.483808410846344e-19,-4.3221713133300807e-20,-1.004643863266519e-05,-5.634375460722102e-06,1.0525042287983985e-18,1.0555421523701594e-05,1.4131634908362127e-05,-3.378704076657311e-05,-3.808010742311663e-18,3.7596155957163345e-18,-0.021563463892347208
1.8004858160787964e-19,5.613025962755298e-19,-6.829446204371237e-20,5.033174551865724e-19,6.229947194992827e-19,-2.0601373892471833e-19,4.7800872407694164e-20,5.379400674032057e-19,-5.634375460722102e-06,1.0525042287983985e-18,1.0555421523701594e-05,1.4131634908362127e-05,-3.378704076657311e-05,-3.808010742311663e-18,3.7596155957163345e-18,-0.021563463892347208
-3.215390972544311e-08,1.424674536389461e-19,3.978576642083912e-08,3.970310732468222e-08,-7.253315029872272e-08,1.0938645397413075e-20,5.357450720774917e-20,-1.0046438632665707e-05,-5.634375460722102e-06,1.0525042287983985e-18,1.0555421523701594e-05,1.4131634908362127e-05,-3.378704076657311e-05,-3.808010742311663e-18,3.7596155957163345e-18,-0.021563463892347208
-4.0879099030097675e-08,-1.8128687452034727e-18,4.525364949711282e-08,4.304894877548246e-08,-7.64923330331581e-08,3.2143952745378104e-19,8.854546695375374e-20,-1.016888286795478e-05,-7.163302826303202e-06,1.8003853721864017e-18,1.2006086320046813e-05,1.5322529350467363e-05,-3.5631288093122625e-05,-3.749479893372279e-18,3.9204859918622896e-18,-0.021826275615285603
-4.425168061505593e-06,2.321314651539106e-18,4.644609401046505e-06,4.371616830534666e-06,-7.740849200608316e-06,7.466353403391903e-19,1.3795986302200891e-18,-0.0010270632155030765,-5.634375460722102e-06,1.0525042287983985e-18,1.0555421523701594e-05,1.4131634908362127e-05,-3.378704076657311e-05,-3.808010742311663e-18,3.7596155957163345e-18,-0.021563463892347208
-4.404631117287466e-07,-1.0382223009239115e-17,2.43344986741897e-07,1.9898337492086694e-07,-3.3016971918906054e-07,3.573202306074064e-19,7.542888824790807e-21,-4.0426537337180585e-05,-5.634375460722102e-06,1.0525042287983985e-18,1.0555421523701594e-05,1.4131634908362127e-05,-3.378704076657311e-05,-3.808010742311663e-18,3.7596155957163345e-18,-0.021563463892347208
-3.21539097236276e-08,1.5917402501809276e-18,3.978576642322083e-08,3.9703107324408834e-08,-7.253315029973884e-08,-5.979903954896719e-19,2.047207682612154e-19,-1.0046438632664944e-05,-5.634375460722102e-06,1.0525042287983985e-18,1.0555421523701594e-05,1.4131634908362127e-05,-3.378704076657311e-05,-3.808010742311663e-18,3.7596155957163345e-18,-0.021563463892347208
-3.2153909725030496e-08,4.787327936946175e-19,3.9785766421276635e-08,3.970310732494165e-08,-7.25331502990925e-08,-8.646853471141742e-20,-9.167396023345987e-21,-1.0046438632665474e-05,-5.634375460722102e-06,1.0525042287983985e-18,1.0555421523701594e-05,1.4131634908362127e-05,-3.378704076657311e-05,-3.808010742311663e-18,3.7596155957163345e-18,-0.021563463892347208
-8.675337631120158e-08,-1.9432141941503113e-18,9.105913779545232e-08,8.570813596356389e-08,-1.5176493407430547e-07,-1.5807260727124017e-18,-1.0749736707862514e-18,-2.01364918145852e-05,-5.634375460722102e-06,1.0525042287983985e-18,1.0555421523701594e-05,1.4131634908362127e-05,-3.378704076657311e-05,-3.808010742311663e-18,3.7596155957163345e-18,-0.021563463892347208
-1.999027328319085e-07,-1.2757383886280187e-17,1.596349255500972e-07,1.396448484350168e-07,-2.386682308385192e-07,6.893214193203052e-19,3.8168389125298095e-19,-3.027044417900578e-05,-5.634375460722102e-06,1.0525042287983985e-18,1.0555421523701594e-05,1.4131634908362127e-05,-3.378704076657311e-05,-3.808010742311663e-18,3.7596155957163345e-18,-0.021563463892347208
-3.215390972467524e-08,7.46024980269694e-19,3.97857664218509e-08,3.9703107324711416e-08,-7.253315029936903e-08,-3.852510439626569e-19,-1.5973344678064948e-19,-1.0046438632665232e-05,-5.634375460722102e-06,1.0525042287983985e-18,1.0555421523701594e-05,1.4131634908362127e-05,-3.378704076657311e-05,-3.808010742311663e-18,3.7596155957163345e-18,-0.021563463892347208
-3.215390972456051e-08,7.000024703997827e-19,3.978576642196564e-08,3.9703107325156175e-08,-7.253315029934786e-08,-3.091449304994418e-19,-6.739834374334084e-21,-1.0046438632665229e-05,-5.634375460722102e-06,1.0525042287983985e-18,1.0555421523701594e-05,1.4131634908362127e-05,-3.378704076657311e-05,-3.808010742311663e-18,3.7596155957163345e-18,-0.021563463892347208
2.7949655859937054e-19,8.486980540145195e-19,-8.677400741654817e-20,1.0610339061025453e-18,1.3638606495166944e-18,3.2601628068111673e-19,1.544562538392988e-20,1.017367662212838e-18,-5.634375460722102e-06,1.0525042287983985e-18,1.0555421523701594e-05,1.4131634908362127e-05,-3.378704076657311e-05,-3.808010742311663e-18,3.7596155957163345e-18,-0.021563463892347208
-3.21539097248574e-08,5.765225682418618e-19,3.9785766421477203e-08,3.970310732445676e-08,-7.253315029909355e-08,-2.931694228927437e-19,4.532704790237179e-20,-1.0046438632665415e-05,-5.634375460722102e-06,1.0525042287983985e-18,1.0555421523701594e-05,1.4131634908362127e-05,-3.378704076657311e-05,-3.808010742311663e-18,3.7596155957163345e-18,-0.021563463892347208
-8.675337633307426e-08,2.989967424683998e-18,9.105913778876874e-08,8.570813596479626e-08,-1.517649340632767e-07,1.244354872815079e-18,1.0322815643271912e-19,-2.0136491814586305e-05,-5.634375460722102e-06,1.0525042287983985e-18,1.0555421523701594e-05,1.4131634908362127e-05,-3.378704076657311e-05,-3.808010742311663e-18,3.7596155957163345e-18,-0.021563463892347208
-3.215390972792736e-08,-1.6092557455754882e-18,3.978576641803601e-08,3.970310732487898e-08,-7.253315029646988e-08,4.134821093089345e-19,1.0227489254247123e-19,-1.0046438632667063e-05,-5.634375460722102e-06,1.0525042287983985e-18,1.0555421523701594e-05,1.4131634908362127e-05,-3.378704076657311e-05,-3.808010742311663e-18,3.7596155957163345e-18,-0.021563463892347208
-1.9990273283386693e-07,-1.0289102291410436e-17,1.5963492554931617e-07,1.3964484843472532e-07,-2.386682308393215e-07,7.394311376567115e-19,2.1718753499707727e-19,-3.0270444179005978e-05,-5.634375460722102e-06,1.0525042287983985e-18,1.0555421523701594e-05,1.4131634908362127e-05,-3.378704076657311e-05,-3.808010742311663e-18,3.7596155957163345e-18,-0.021563463892347208
-3.2153909723504315e-08,1.395898506634716e-18,3.978576642262236e-08,3.970310732432462e-08,-7.253315030016086e-08,-6.84777031387319e-19,-5.334956531218142e-19,-1.0046438632664597e-05,-5.634375460722102e-06,1.0525042287983985e-18,1.0555421523701594e-05,1.4131634908362127e-05,-3.378704076657311e-05,-3.808010742311663e-18,3.7596155957163345e-18,-0.021563463892347208
-2.521176798014463e-07,-6.787691445839898e-18,1.6996572698784965e-07,1.439800421697518e-07,-2.426982948685078e-07,2.35878517869939e-19,-3.979714704314821e-19,-3.02924416223691e-05,-5.634375460722102e-06,1.0525042287983985e-18,1.0555421523701594e-05,1.4131634908362127e-05,-3.378704076657311e-05,-3.808010742311663e-18,3.7596155957163345e-18,-0.021563463892347208
-3.215390972497665e-08,4.143117589947427e-19,3.9785766421026985e-08,3.9703107324243444e-08,-7.253315029913614e-08,-4.788371292641605e-20,-1.4265605208065508e-19,-1.004643863266532e-05,-5.634375460722102e-06,1.0525042287983985e-18,1.0555421523701594e-05,1.4131634908362127e-05,-3.378704076657311e-05,-3.808010742311663e-18,3.7596155957163345e-18,-0.021563463892347208
-8.675337631936936e-08,-2.7836433701063913e-18,9.105913779557465e-08,8.570813596436303e-08,-1.5176493407092594e-07,-2.596801459047824e-19,5.051386369691228e-19,-2.013649181458608e-05,-5.634375460722102e-06,1.0525042287983985e-18,1.0555421523701594e-05,1.4131634908362127e-05,-3.378704076657311e-05,-3.808010742311663e-18,3.7596155957163345e-18,-0.021563463892347208
-4.392461260054033e-08,1.4173709939167241e-18,4.6043051184152424e-08,4.3314487302132007e-08,-7.667515455780568e-08,-2.827177018565057e-19,-3.5800973185444377e-20,-1.016914865125545e-05,-7.696972513759841e-06,2.106128543687443e-18,1.2215519699576455e-05,1.5417043199847154e-05,-3.5716449129033275e-05,-3.770110227582392e-18,3.903001557016091e-18,-0.02182684608695955
-3.215390972595435e-08,-2.175546203599541e-19,3.978576642034704e-08,3.9703107324917934e-08,-7.253315029835904e-08,5.827490168385304e-20,-1.5166930780570428e-20,-1.0046438632666049e-05,-5.634375460722102e-06,1.0525042287983985e-18,1.0555421523701594e-05,1.4131634908362127e-05,-3.378704076657311e-05,-3.808010742311663e-18,3.7596155957163345e-18,-0.021563463892347208
-0.013254269975761,2.238182407977501e-16,-0.004496790388405353,-0.18929671061264836,0.050949856640642166,7.57473261722131e-17,-7.530870293632026e-17,-0.00018988490609295734,-0.00019135417814575813,8.665459349338333e-18,-1.0604019665359055e-05,-0.0006119532511682931,8.439398441178492e-05,-3.871818252867757e-18,3.652505000179091e-18,-0.021827974481787787
-3.2153909725511544e-08,1.007789386265561e-19,3.9785766420790895e-08,3.970310732474042e-08,-7.253315029861231e-08,-3.334955922424705e-20,6.1676511999928565e-21,-1.0046438632665762e-05,-5.634375460722102e-06,1.0525042287983985e-18,1.0555421523701594e-05,1.4131634908362127e-05,-3.378704076657311e-05,-3.808010742311663e-18,3.7596155957163345e-18,-0.021563463892347208
-4.087909902926037e-08,-1.2623567590272769e-18,4.5253649498566193e-08,4.3048948775692815e-08,-7.649233303389394e-08,-1.158891543275309e-19,-1.1643246422882601e-19,-1.0168882867954298e-05,-7.163302826303261e-06,1.940119389431947e-18,1.2006086320046675e-05,1.5322529350467374e-05,-3.563128809312251e-05,-3.772387042995643e-18,3.899962317415063e-18,-0.021826275615285603
2.574611417764709e-19,5.492329321773933e-19,5.1925808685736385e-20,7.450441247316761e-19,7.476642161338477e-19,1.2575744335702049e-19,1.8992883020286758e-19,4.988984373538523e-19,-5.634375460722102e-06,1.0525042287983985e-18,1.0555421523701594e-05,1.4131634908362127e-05,-3.378704076657311e-05,-3.808010742311663e-18,3.7596155957163345e-18,-0.021563463892347208
-2.1799635680927607e-07,-5.725219279024041e-18,1.6695028133263885e-07,1.4356847350935117e-07,-2.430115979558801e-07,6.933551691029887e-19,4.55462073424642e-19,-3.0393425546249946e-05,-5.634375460722102e-06,1.0525042287983985e-18,1.0555421523701594e-05,1.4131634908362127e-05,-3.378704076657311e-05,-3.808010742311663e-18,3.7596155957163345e-18,-0.021563463892347208
-8.675337631102144e-08,-2.213040535242758e-18,9.105913779671645e-08,8.570813596645627e-08,-1.5176493407272565e-07,-1.4497295368240324e-18,-1.8886794347648853e-18,-2.0136491814584902e-05,-5.634375460722102e-06,1.0525042287983985e-18,1.0555421523701594e-05,1.4131634908362127e-05,-3.378704076657311e-05,-3.808010742311663e-18,3.7596155957163345e-18,-0.021563463892347208
-9.173362266074673e-19,-2.126693135370872e-18,7.596877837829082e-20,-2.553628622756412e-18,-3.2878124802888023e-18,4.855845340763812e-19,-4.2057482114680474e-19,-2.0766910572221328e-18,-5.634375460722102e-06,1.0525042287983985e-18,1.0555421523701594e-05,1.4131634908362127e-05,-3.378704076657311e-05,-3.808010742311663e-18,3.7596155957163345e-18,-0.021563463892347208
-3.2153909726109834e-08,-2.787851242793285e-19,3.978576642012914e-08,3.97031073247451e-08,-7.253315029827178e-08,1.5430327655323164e-19,2.20037439086695e-20,-1.0046438632666052e-05,-5.634375460722102e-06,1.0525042287983985e-18,1.0555421523701594e-05,1.4131634908362127e-05,-3.378704076657311e-05,-3.808010742311663e-18,3.7596155957163345e-18,-0.021563463892347208
8.8901687012251e-19,2.1006856291537985e-18,-2.4408749859079046e-20,2.9476799585303667e-18,3.3138471495375716e-18,1.3110629501519085e-18,1.0935272404238955e-18,1.9606630907612643e-18,-5.634375460722102e-06,1.0525042287983985e-18,1.0555421523701594e-05,1.4131634908362127e-05,-3.378704076657311e-05,-3.808010742311663e-18,3.7596155957163345e-18,-0.021563463892347208
-3.215390972515529e-08,4.343282266999852e-19,3.978576642104877e-08,3.970310732474269e-08,-7.25331502987982e-08,-1.9139051715161967e-19,1.3838848103732152e-20,-1.0046438632665549e-05,-5.634375460722102e-06,1.0525042287983985e-18,1.0555421523701594e-05,1.4131634908362127e-05,-3.378704076657311e-05,-3.808010742311663e-18,3.7596155957163345e-18,-0.021563463892347208
-5.393941599028065e-19,-1.970883758976835e-18,2.0807417580987986e-19,-2.0712117241881694e-18,-2.7656768458567786e-18,2.037471525792518e-19,-5.232572507366683e-20,-1.8874701313309827e-18,-5.634375460722102e-06,1.0525042287983985e-18,1.0555421523701594e-05,1.4131634908362127e-05,-3.378704076657311e-05,-3.808010742311663e-18,3.7596155957163345e-18,-0.021563463892347208
-4.1057489218104726e-19,-9.828464445556415e-19,-2.091361342496593e-20,-1.1234566710990436e-18,-1.5237177998882383e-18,8.024839526157148e-20,-1.7253145417445926e-19,-1.0459673620787112e-18,-5.634375460722102e-06,1.0525042287983985e-18,1.0555421523701594e-05,1.4131634908362127e-05,-3.378704076657311e-05,-3.808010742311663e-18,3.7596155957163345e-18,-0.021563463892347208
-3.215390972448856e-08,7.391617599923916e-19,3.978576642175466e-08,3.970310732424335e-08,-7.253315029961466e-08,-3.5934237149784715e-19,1.160690860741262e-19,-1.0046438632665053e-05,-5.634375460722102e-06,1.0525042287983985e-18,1.0555421523701594e-05,1.4131634908362127e-05,-3.378704076657311e-05,-3.808010742311663e-18,3.7596155957163345e-18,-0.021563463892347208
-3.215390972463649e-08,6.832427077138708e-19,3.978576642169501e-08,3.970310732389408e-08,-7.253315029946259e-08,-2.669421055803579e-19,-1.0895198048683265e-19,-1.004643863266507e-05,-5.634375460722102e-06,1.0525042287983985e-18,1.0555421523701594e-05,1.4131634908362127e-05,-3.378704076657311e-05,-3.808010742311663e-18,3.7596155957163345e-18,-0.021563463892347208
-4.534265203813092e-06,-8.897180406134414e-19,4.719522663523551e-06,4.430420380762329e-06,-7.834432649818186e-06,6.747581828361876e-19,1.2435130679993328e-18,-0.0010376313431650702,-7.76776817856829e-06,3.918718511697381e-18,1.22576149934509e-05,1.5445571995411097e-05,-3.575537344703813e-05,-3.69225238337598e-18,3.9917297780276685e-18,-0.02183000278179946
-1.104393158859859e-07,4.558568865228394e-18,9.875139851991088e-08,8.97417360968859e-08,-1.561963572392949e-07,2.7908610717201013e-18,1.2551933909679231e-18,-2.025991102473382e-05,-5.634375460722102e-06,1.0525042287983985e-18,1.0555421523701594e-05,1.4131634908362127e-05,-3.378704076657311e-05,-3.808010742311663e-18,3.7596155957163345e-18,-0.021563463892347208
-3.2153909726887265e-08,-8.972181570277897e-19,3.9785766419711325e-08,3.97031073246478e-08,-7.253315029774542e-08,1.5957860250622783e-19,-8.293481577818575e-21,-1.0046438632666416e-05,-5.634375460722102e-06,1.0525042287983985e-18,1.0555421523701594e-05,1.4131634908362127e-05,-3.378704076657311e-05,-3.808010742311663e-18,3.7596155957163345e-18,-0.021563463892347208
-1.99902732834825e-07,2.224156827799881e-19,1.5963492555211903e-07,1.3964484843535634e-07,-2.3866823084031676e-07,-3.7062987401711906e-20,-4.910535436799122e-21,-3.0270444179005303e-05,-5.634375460722102e-06,1.0525042287983985e-18,1.0555421523701594e-05,1.4131634908362127e-05,-3.378704076657311e-05,-3.808010742311663e-18,3.7596155957163345e-18,-0.021563463892347208
-1.9990273283723224e-07,1.1184776878234871e-17,1.596349255530019e-07,1.3964484843526467e-07,-2.3866823084139175e-07,-5.2542587868890955e-19,-2.426894253629016e-19,-3.0270444179004243e-05,-5.634375460722102e-06,1.0525042287983985e-18,1.0555421523701594e-05,1.4131634908362127e-05,-3.378704076657311e-05,-3.808010742311663e-18,3.7596155957163345e-18,-0.021563463892347208
-3.215390972859962e-08,-2.4309138901573682e-18,3.978576641791977e-08,3.9703107323479334e-08,-7.253315029689028e-08,8.607999196890534e-19,5.386594556403492e-20,-1.0046438632667121e-05,-5.634375460722102e-06,1.0525042287983985e-18,1.0555421523701594e-05,1.4131634908362127e-05,-3.378704076657311e-05,-3.808010742311663e-18,3.7596155957163345e-18,-0.021563463892347208
-1.999027328366868e-07,1.491907049708337e-17,1.5963492555390492e-07,1.3964484843540787e-07,-2.386682308427876e-07,8.442127625920473e-20,-4.2941441555782235e-19,-3.0270444179005104e-05,-5.634375460722102e-06,1.0525042287983985e-18,1.0555421523701594e-05,1.4131634908362127e-05,-3.378704076657311e-05,-3.808010742311663e-18,3.7596155957163345e-18,-0.021563463892347208
-8.675337632803733e-08,3.229815836834622e-19,9.105913779113717e-08,8.570813596472778e-08,-1.5176493406745205e-07,5.275756595853301e-19,-2.1032639430399135e-19,-2.0136491814586877e-05,-5.634375460722102e-06,1.0525042287983985e-18,1.0555421523701594e-05,1.4131634908362127e-05,-3.378704076657311e-05,-3.808010742311663e-18,3.7596155957163345e-18,-0.021563463892347208
-3.215390972664976e-08,-6.997552647197906e-19,3.978576641954186e-08,3.970310732442636e-08,-7.253315029798728e-08,8.601791771323946e-20,-5.702646887041292e-20,-1.004643863266637e-05,-5.634375460722102e-06,1.0525042287983985e-18,1.0555421523701594e-05,1.4131634908362127e-05,-3.378704076657311e-05,-3.808010742311663e-18,3.7596155957163345e-18,-0.021563463892347208
-0.0004095155927171885,1.696687668433377e-17,-6.353477294234074e-05,-0.002392833044956178,0.0005764467604371696,-1.0607085904813198e-18,-1.105289847251242e-18,-0.0010513353023968801,-5.634375460722102e-06,1.0525042287983985e-18,1.0555421523701594e-05,1.4131634908362127e-05,-3.378704076657311e-05,-3.808010742311663e-18,3.7596155957163345e-18,-0.021563463892347208
5.309055555545894e-19,1.2910645558412354e-18,-6.897576667581599e-20,1.565437509146902e-18,1.998214291222626e-18,-2.3258003464220295e-19,4.360495225236219e-19,1.1194517556139082e-18,-5.634375460722102e-06,1.0525042287983985e-18,1.0555421523701594e-05,1.4131634908362127e-05,-3.378704076657311e-05,-3.808010742311663e-18,3.7596155957163345e-18,-0.021563463892347208
-8.675337632123016e-08,1.2653501200132842e-19,9.10591377932849e-08,8.570813596631467e-08,-1.5176493406810966e-07,-2.223311019915966e-19,4.11154752121185e-20,-2.013649181458459e-05,-5.634375460722102e-06,1.0525042287983985e-18,1.0555421523701594e-05,1.4131634908362127e-05,-3.378704076657311e-05,-3.808010742311663e-18,3.7596155957163345e-18,-0.021563463892347208
